9996 16
the 0.05834239 -0.031018244 -0.019328434 0.055831764 0.053171843 -0.0044816057 -0.06238698 0.014355519 -0.047770176 0.01960193 -0.026404649 0.02914681 0.0034249267 0.0074895774 -0.09454917 0.0983488
and 0.021413513 -0.033534266 -0.062227532 0.02796305 0.044164866 -0.0027175727 0.007847842 0.043409564 0.038686633 -0.049637612 0.004296498 0.08500064 0.012487214 -0.0048825527 -0.1041361 0.072479546
a 0.035614457 0.06473357 -0.027532361 0.049786463 0.042739447 0.0023345975 -0.025975812 0.042587847 0.02656645 -0.069910534 0.03480319 0.022449825 -0.026312733 0.0033887636 -0.07259422 0.08228423
of 0.020170057 0.035120808 -0.025665103 -0.015647797 0.10352625 0.057750084 -0.06470478 0.03341377 -0.070299305 -0.04269401 -0.027911229 0.047690503 -0.04047004 -0.03803426 -0.038104996 0.08135697
to 0.056180004 0.015028061 -0.09666746 -0.07131232 0.092681035 0.071364515 0.008393975 -0.00938683 -0.02108807 -0.005091436 -0.0008409737 0.0346724 0.0829485 -0.045462497 -0.11698131 0.09908929
is 0.018243803 -0.00662327 0.029988362 0.022878231 -0.024775367 -0.029830119 -0.0065312344 0.09213143 0.055442933 -0.053034298 0.035199165 0.02751505 -0.048373863 0.034240615 -0.06829565 0.057567567
br 0.0024655017 -0.05180841 -0.07430073 -0.009465055 0.08171858 0.036505666 -0.016190892 0.060241126 -0.014718793 0.03401071 0.029417455 0.021980492 0.08956931 0.0015314874 -0.05960425 0.016508106
in 0.05285691 -0.034512408 -0.10196903 0.03267005 0.07741827 -0.030564561 -0.06715184 0.05663328 0.016778052 0.019905135 0.06606496 0.067116156 0.009274097 -0.0006517555 -0.05267856 0.05321806
it 0.023570525 0.04980092 0.020870315 0.028086446 0.036062993 0.035559636 -0.013824889 0.05130875 0.042103745 -0.023342432 0.047777347 0.07039056 -0.026031196 0.019249184 -0.11263984 0.057098266
i 0.09212508 -0.04409736 -0.061441943 -0.014975316 0.0737549 0.030584415 0.09056579 -0.02282816 -0.021449748 0.006093323 -0.09609085 -0.023263514 0.023845393 -0.034904208 -0.0599799 0.010111261
this 0.07931664 -0.12725073 -0.06377547 -0.0751798 0.1683377 0.08862076 0.095891066 -0.06381681 -0.15114748 0.08703638 -0.049428962 -0.08490039 0.056016132 -0.061458822 -0.083890736 -0.025578896
that -0.010237704 -0.04658874 -0.08751118 0.01747254 0.06325879 0.0048594037 -0.022869885 0.0019310748 -0.06365824 0.033621956 -0.027106456 0.026826391 0.028434673 -0.013936105 -0.012629567 0.06980074
was 0.04277824 -0.05773056 -0.07962831 -0.004931965 0.01120559 0.01574569 -0.02669732 -0.032456804 -0.025832694 0.04001339 -0.029249053 0.02001624 -0.016618412 0.011412321 -0.06802948 -0.03174621
as 0.005088403 -0.014551177 0.0280216 0.03651263 0.03373978 -0.019759154 -0.028326552 0.06726986 -0.009269457 0.030999398 0.06307698 -0.024013605 0.039128352 -0.023053523 0.014714968 0.044070467
for -0.0064521465 -0.02296635 0.016081959 0.049950276 0.06604645 0.05105135 -0.055759642 0.06468105 0.03706098 -0.012095952 -0.015185473 0.035957452 -0.03839287 0.013874918 -0.06940936 -0.012513164
with 0.06555072 0.0008525028 -0.030530626 0.0039063855 0.08736917 0.03213092 0.051811423 0.020374341 -0.07503417 -0.013215372 -0.003013878 -0.06267227 0.006064959 -0.031525772 -0.049203474 0.003141965
movie 0.04927648 -0.08936384 -0.08999979 -0.064488545 0.10213469 0.054523923 0.08949181 -0.00070505816 -0.067462124 0.01780008 -0.03305667 -0.007162758 0.06485341 -0.051939566 -0.036454156 -0.026303858
but -0.09335155 0.03897363 0.061033312 0.091728605 -0.01268566 -0.09153413 -0.036734954 0.09983085 0.06257167 -0.10175909 0.04923939 0.07788977 -0.042584814 0.06409918 0.0369729 0.055834312
film -0.0009864385 0.04786802 -0.069764115 -0.0058856644 -0.02093876 0.0109958155 0.014372411 0.05091645 -0.0023546787 -0.006014126 -0.030246818 0.06649327 -0.04724962 -0.0047883 0.014104308 0.055877004
on -0.038116317 -0.0065987664 -0.0954987 0.015120654 0.07050122 -0.025026973 0.027767202 0.030080333 0.008873168 0.006874478 0.0010660507 0.005709448 -0.012183264 0.044322778 -0.02457066 0.021118663
not 0.03659821 -0.088319756 -0.038715024 -0.029774282 0.037757687 0.08140959 0.050000016 0.022178615 -0.08447086 0.0013923813 -0.03056851 0.015470197 0.0886223 -0.041926503 -0.0058292937 -0.0010691744
you -0.012272275 0.042026073 0.03325667 -0.0066384524 -0.0018294936 0.06338765 0.039589345 -0.06892728 0.015978882 -0.043340802 -0.022709114 0.038804315 -0.018439883 -0.0006178132 -0.103447594 0.051981535
are 0.011307934 0.023899216 0.03376734 -0.0134333605 0.038155843 0.03263266 0.030355828 -0.04055089 -0.025509464 0.040055864 -0.012528602 -0.024144834 -0.032745916 -0.050802823 -0.06609163 0.07702867
his 0.0026480656 -0.015855148 0.016239922 0.05363201 -0.057852395 -0.043620538 -0.030668892 0.09361361 0.037935965 -0.06933489 0.033135798 0.017598571 -0.012207338 0.023439918 0.004470715 0.06454555
have -0.0031910008 -0.03790513 -0.03572916 -0.058859065 0.016064143 0.0850533 -0.009411887 -0.07614098 -0.059973735 0.0618404 -0.08175013 -0.08818588 0.05154433 -0.0017220842 -0.04943948 0.018935926
he 0.08460235 -0.049540814 0.0040014843 -0.04255325 0.0006887077 0.08652155 0.055842727 -0.0065438687 -0.071413055 0.048618164 0.012963097 -0.045760114 0.0925889 -0.038487483 -0.10088948 -0.05029472
be 0.01321289 -0.03975495 -0.026261125 -0.029311681 0.040899247 -0.038058538 -0.045647573 0.03717127 -0.0021674153 -0.055456344 0.037712783 -0.021908356 -0.0151806045 -0.02757363 0.03011454 0.009829362
one 0.024437325 -0.039732188 -0.006784223 0.036277097 0.060192358 0.017485475 0.0069450056 0.091750994 -0.018813588 -0.09939418 0.041538537 0.10142373 -0.012063965 0.042906858 0.023012256 -0.0124144675
all 0.024782361 -0.0064771706 0.039590295 0.02873974 0.0939578 0.0025639057 -0.023929043 0.038935874 -0.035586596 0.014135913 0.00043081603 0.0055489466 0.032448385 -0.03562852 -0.111915745 0.009899541
at 0.039868303 -0.028291412 0.02083589 0.012683328 -0.0059702266 0.005928941 0.053791784 0.004791665 -0.058363277 0.0509267 -0.0058248113 0.011102861 0.040776834 -0.011138854 -0.0052171135 0.10050492
by 0.03909326 0.019326689 -0.026227145 0.041860152 0.02502525 0.008070394 -0.039233513 -0.024285097 -0.0067023183 -0.016328443 -0.053417694 -0.027274808 0.033618215 -0.0054897475 0.010797613 0.057265576
an 0.01855897 -0.06251111 -0.0889188 -0.009597991 0.010183655 0.03864671 0.011221281 0.02785599 -0.047839906 0.027579073 -0.007875065 -0.032918904 0.050750196 0.010359287 -0.037933636 0.012907789
they 0.01922632 0.055357017 -0.058103085 0.022682134 0.062421948 0.011313876 0.030192636 0.015027362 -0.060368124 0.018691402 -0.009071733 0.008593947 -0.0022323935 0.03463626 0.012402808 -0.018445633
who 0.009011604 -0.013541142 -0.04637528 0.0526491 0.044575475 -0.016177503 -0.060672868 0.016429825 -0.009483571 -0.03242083 0.07300161 0.042794384 0.024652887 -0.030089589 0.032269996 0.04657308
so 0.044038422 -0.075309746 -0.093176246 -0.027701776 0.085057065 0.023496682 0.046468046 -0.0824994 -0.045987897 0.028772231 -0.06326736 -0.036480498 0.06770859 -0.071824335 -0.07846716 -0.03624489
from 0.030355684 -0.0435389 -0.06491916 -0.04107137 0.03910871 -0.0011572421 0.03389066 0.05912971 -0.042890735 0.04433207 0.010547206 -0.023616277 0.047481876 -0.020097421 -0.007796208 0.050033
like 0.021062024 -0.014304746 -0.018439787 0.06444067 0.030013522 0.01233921 0.019654242 -0.01786556 -0.013287833 -0.01353796 0.030574962 0.020575467 -0.010422621 0.047198284 -0.048615903 0.014744988
her -0.028374925 0.031407386 -0.05407796 0.06770713 -0.036863055 -0.02750397 -0.050915137 -0.009737662 0.014107941 -0.042186532 -0.011604924 0.036101148 0.02036018 0.008785909 -0.010485334 0.004195651
or 0.04552719 0.04306022 -0.07067738 -0.028029572 -0.0071199355 0.002523489 0.037508737 0.031265583 -0.015530281 -0.012063912 -0.077464506 -0.025446068 -0.024563981 0.010565829 -0.052126225 0.08062703
just 0.07022748 -0.08496593 -0.076601006 -0.1355812 0.13819246 0.08586089 0.10988491 -0.053994216 -0.06654472 0.047049243 -0.11573427 -0.06813137 0.1085304 -0.073013484 -0.06530826 -0.057928562
about 0.04520921 -0.043690432 0.018412305 0.036459018 -0.009945816 0.0045077526 -0.02554175 -0.035790913 0.0025117774 0.037176978 -0.024302501 -0.043511093 0.034794383 0.003376367 -0.042829335 -0.07360347
it's 0.03069589 -0.10401026 -0.07286054 -0.06686129 0.07944215 0.09593537 0.008485312 -0.008744667 -0.0077531477 0.038891394 -0.0147391865 -0.06429156 0.011610242 -0.05684251 -0.008699372 0.050265472
out 0.043799747 -0.1013975 -0.0007880443 -0.1176593 0.15356128 0.10806975 0.077224955 -0.053067334 -0.14095782 0.036412403 -0.06296092 -0.047500275 0.036831293 -0.047460865 -0.042308994 0.012417052
has 0.08579769 -0.03895852 -0.018073926 -0.07905516 0.055322282 0.027501572 0.0058457814 -0.041047048 -0.07217369 0.0848364 -0.003530261 0.0041902703 0.070325874 -0.017350476 -0.08430227 -0.056226034
if 0.020460239 -0.040359747 0.11686136 0.016837094 0.08745981 0.027072953 0.04956076 -0.056852046 -0.0069943024 0.05623329 -0.031145224 -0.0071216826 0.06505115 0.0052561066 -0.07696041 -0.028314047
some 0.10752249 -0.10123414 -0.07659902 -0.039832428 0.063680165 0.088764586 0.106393464 -0.0020659626 -0.06291126 0.077063166 -0.06280007 -0.050869796 0.0781566 -0.09235127 -0.061657246 -0.0011440523
there 0.082745686 -0.013496259 -0.062466502 -0.0051630666 0.064660735 0.069648065 0.040937755 -0.032075994 -0.015038979 0.035787325 -0.060214944 -0.077843 0.07137322 -0.03235594 -0.043325298 0.030071642
what -0.024746638 -0.010864987 0.027957391 0.051974505 -0.037165415 -0.084338866 -0.04165401 0.0054924437 0.08945858 -0.022408238 0.035030004 0.07207529 -0.0058336235 -0.007903896 0.045147996 0.0662234
good -0.07178414 -0.008175916 0.002520725 0.042878766 -0.01885026 -0.030248685 -0.09385114 0.06988378 0.03352661 -0.09190331 0.053844526 0.07550638 -0.032225963 0.06176897 0.08907124 0.084421836
more 0.0042265193 -0.00816773 -0.07664364 0.016367959 0.021931134 -0.013115612 -0.022416653 0.01199986 -0.05423658 0.03272646 -0.041896522 -0.01847876 0.016275417 -0.060222223 -0.048807498 0.0006216072
when -0.035450164 0.043456428 -0.018989168 -0.026399212 0.011691737 -0.060436346 -0.055745974 0.017193357 0.03716873 0.019673398 0.03739891 -0.0115146 -0.040773768 0.0022618463 0.048746865 0.004537224
very 0.054243494 -0.015730148 -0.043694403 -0.00836513 0.035631172 0.03513271 -0.018805321 -0.011345128 -0.063624 0.011118002 0.045706138 -0.0077797514 0.057904817 -0.041591775 -0.039091885 -0.031298745
up 0.045788005 -0.033750437 0.027906757 -0.013050165 0.026664892 -0.03591611 0.017811405 -0.0094623 -0.018755235 -0.023441842 0.02901819 0.0017717953 0.04189743 0.04045475 -0.026195338 0.030651832
no 0.12398576 -0.14287488 -0.09538449 -0.112386055 0.078268334 0.04786398 0.054929473 -0.009079725 -0.045314267 0.103395954 -0.050543446 -0.054138817 0.03797914 -0.11663702 -0.031122813 0.03640958
time 0.07110371 -0.08699582 -0.13803007 -0.07078415 0.06010647 0.05402658 0.06665027 -0.041929036 -0.07238263 0.029076315 -0.019572383 -0.060795713 0.07635331 -0.09615962 -0.08074778 -0.09459731
she -0.009710948 0.060345102 0.017145539 0.06944021 -0.046557203 -0.021126062 -0.023204954 0.004910224 0.05362653 -0.029258933 0.06500353 0.074613415 -0.077658325 0.08202775 0.040484227 0.026920272
even 0.014647368 0.009866646 -0.08356605 0.020521913 0.06707604 0.06124649 0.028682841 0.041502304 -0.0257778 -0.029359255 -0.045578394 0.004079937 0.046336733 0.031190284 0.00830985 0.027756581
my -0.07144707 0.058471035 0.0304606 0.093634024 0.017277706 -0.034580424 -0.05629708 0.046556544 0.023219492 -0.05228247 0.008528176 0.052188616 -0.07887365 0.06657575 -0.020845026 0.058700725
would -0.12368553 0.041681513 0.014883298 0.057366252 -0.054057624 -0.048296552 -0.035104427 0.015993206 0.08368407 -0.046439316 0.030485244 0.04566307 -0.10359033 0.102515906 0.1114813 0.011906341
which -0.00035274617 0.025481882 -0.026679343 0.00117805 0.028073667 0.03525092 0.054517265 -0.06068881 0.016677298 -0.016262459 -0.004339232 -0.035154384 0.011097103 -0.028271588 0.018231349 0.021524975
only -0.012946471 0.025893206 0.014332599 -0.0016121134 0.052404054 0.026214447 0.041738886 -0.065574154 -0.0026973677 -0.019074883 -0.05207486 0.03165041 0.033519834 0.011080064 -0.03668307 -0.030888174
story 0.020274092 0.005855063 -0.008926655 -0.026335638 -0.024536187 0.037928935 -0.015065381 -0.006104339 -0.025138289 -0.046074845 0.051776256 0.014253411 -0.0008812448 -0.015809737 0.06506714 0.0062654996
really 0.042936333 -0.06337244 -0.01441184 -0.049445853 0.06823116 0.03140407 -0.015825417 -0.015452934 -0.09562321 0.06376807 -0.00031288405 0.014511174 0.06763383 -0.07670712 -0.014279514 -0.0323127
see 0.02445087 -0.023014812 0.007951883 0.011315289 0.049814243 -0.016301671 -0.04156357 -0.038210534 -0.059846293 0.043486983 0.058431484 -0.019904189 0.054037146 0.0030035696 -0.0575172 -0.028805694
their 0.043473866 0.0009005663 -0.013438269 0.037816852 0.0517355 -0.03184056 -0.028129669 -0.014109532 -0.019696694 -0.02313568 0.030770978 -0.026907 -0.019859219 0.038733087 -0.018527506 0.015948331
had -0.03915929 0.024738325 0.052950036 -0.0059109316 0.034346573 0.020727547 0.01321042 -0.017209861 0.0007979824 0.020816633 0.066936865 -0.023055753 -0.029197492 -0.0067931716 -0.031112252 0.023150656
can 0.01266217 0.0046867654 -0.0072852694 -0.04711146 -0.0051202206 0.00990896 -0.015133437 -0.070332944 -0.031150075 -0.019301658 -0.03967019 -0.013682567 0.051664177 -0.029962404 -0.087747864 -0.0065753474
were 0.06351689 0.012608449 -0.006344488 -0.044576567 0.04151987 0.049308587 0.064209916 -0.08366047 -0.0771313 0.060927484 -0.08442075 -0.066104405 0.005712105 -0.0070572477 -0.05806649 -0.058557168
me 0.034028154 -0.12678678 -0.03794216 -0.10319257 0.059403013 0.086753175 0.03775904 -0.017698884 -0.088873506 0.0024666002 -0.02219235 -0.06489547 0.015273204 -0.045783382 -0.02723365 -0.010693529
well -0.065680675 0.07677789 0.04285616 0.11535809 0.0019420175 -0.112439916 -0.09077434 0.08703672 0.089173 -0.084849164 0.087695986 0.06423552 -0.022824138 0.10283139 -0.042649765 0.047520284
than -0.018717851 -0.028995099 -0.073433444 -0.021782085 0.07084382 0.03513374 -0.015773838 0.015563673 0.006783647 0.028536864 -0.042821072 0.02996681 0.005749139 -0.007054739 -0.0061613503 0.00246241
we -0.014132411 0.029466804 0.019954924 0.05264244 -0.06018996 -0.02235626 -0.007642011 0.0005580836 0.023622453 -0.014075082 0.102278434 0.033700723 -0.03336316 0.025440644 0.11382664 -0.035957307
much 0.012163131 0.0020852182 -0.08595038 0.019043513 0.029654795 -0.019843262 -0.028789433 0.03093781 0.004907438 0.052437395 -0.064645775 -0.0145377265 0.06563234 -0.011961268 -0.050220214 0.009916856
been -0.016484175 -0.008750694 -0.021721493 0.017131245 0.06805295 0.0084533375 0.048925005 0.030008204 -0.023522649 -0.0011072457 0.04503712 0.0020334602 -0.027922178 -0.010598501 -0.046645828 -0.05267591
bad 0.13508838 -0.1350094 -0.14694132 -0.06641062 0.09551713 0.14758594 0.07261538 -0.07025617 -0.10609617 0.151468 -0.12796009 -0.068348534 0.051180184 -0.1413794 -0.08263756 -0.04627324
get 0.015726477 -0.062342677 -0.047388148 -0.043886438 0.09663428 0.06929792 0.07387487 -0.059401765 -0.051517516 0.1005311 -0.07345213 -0.07785865 0.10278724 -0.090620905 -0.06570458 -0.059064593
will -0.05579602 0.023404121 0.020223672 0.009219379 -0.031520315 -0.051032044 -0.024665408 0.030598989 0.009660464 0.012779454 0.039084595 0.0067568063 0.017264849 0.032049157 -0.016690873 0.073449925
do 0.038723715 0.032052115 0.05768461 0.031939205 -0.021760635 -0.02465308 0.037274364 0.035395592 -0.05384349 -0.059314504 -0.017396966 0.043077294 -0.050591514 -0.03151511 -0.0063599595 0.025604479
also -0.0462589 0.06520892 0.05262838 0.07089945 -0.014799975 0.0014456537 0.022239035 -0.023708895 0.020496357 -0.047329914 0.023102649 -0.031041073 -0.024742547 -0.017239463 -0.02252016 0.020419806
into 0.003829032 -0.018888932 -0.06208299 -0.057637237 0.04453187 0.09746465 0.082104795 -0.024117013 -0.07456838 0.0014210664 -0.065105654 -0.04620516 0.018844744 -0.05418096 -0.082825355 0.021331623
people -0.008850162 0.06621687 0.052682478 -0.013464073 -0.0365591 -0.023696152 -0.006117685 0.038079455 0.028925845 -0.012085077 -0.02084981 0.05813383 -0.0030614263 0.048208933 0.044416673 0.025770787
other -0.008334233 0.05519533 0.028653521 0.00049512915 -0.013584346 -0.012785782 -0.009880586 0.0022504225 0.06773252 -0.06194699 0.06968533 0.07409047 -0.0107200565 0.011418267 -0.0732605 0.032184497
first -0.013342552 -0.054552764 -0.038751543 -0.0021570036 0.046630982 0.02583346 -0.0029765 -0.047852367 -0.08042225 -0.020030688 -0.033088896 -0.030774869 -0.017469889 -0.042026978 -0.07410467 0.00998045
great -0.0791766 0.06350243 0.025673475 0.014722237 -0.0026044028 -0.010348134 -0.11470795 0.07470994 0.031991437 -0.11951364 0.10123702 0.08504607 -0.04225782 0.09397049 0.03320281 0.058296803
because 0.037944872 -0.103762776 -0.11326479 -0.034767568 0.05361072 0.04025632 0.07206197 -0.09330657 -0.09943754 0.11348884 -0.08592987 -0.05444007 0.07379878 -0.047178417 -0.073362015 -0.070681565
how 0.10167679 -0.045431998 -0.0052299574 -0.08607192 0.08951456 0.100179285 0.060641516 -0.034069084 -0.08002263 0.013303514 -0.103195265 -0.09950184 0.009640112 -0.09621914 -0.002375175 -0.020739663
him -0.024465341 0.016100034 0.006151637 0.07145497 -0.038551357 -0.00083809264 -0.075521275 0.07206922 0.05492429 -0.08306323 0.019277953 0.06687076 -0.0020193781 0.075183645 -0.0024960171 -0.022454126
most -0.008113088 0.088636294 0.12273003 0.08184843 -0.0008891769 -0.015105717 -0.07560722 0.04554027 0.09029549 -0.077105895 0.11554375 0.08705556 -0.041052446 0.07380903 0.050976153 0.035814583
don't 0.0930626 -0.06434378 -0.11603134 -0.10239856 0.09339935 0.10508496 0.09240776 -0.1337029 -0.069570884 0.105266824 -0.09640134 -0.09405274 0.11267498 -0.1361766 -0.18090105 -0.04066934
made -0.021822132 -0.037127852 0.0027681186 -0.03169122 0.037223294 -0.013480721 -0.04430981 -0.007488007 -0.038987 -0.04092128 0.032312423 -0.0048546265 0.015357092 -0.03244757 -0.009274552 -0.013454315
its -0.16595306 0.13423735 0.10789764 0.12794623 -0.066293165 -0.16641106 -0.19129795 0.120369375 0.09606687 -0.123496816 0.15707238 0.11692338 -0.12454711 0.17599374 0.040865317 0.11662437
then -0.023120454 0.033360086 -0.0086981505 0.0016403524 0.04191912 0.0630495 -0.012776513 -0.025136206 -0.041705888 -0.01754067 0.012520116 -0.056399196 0.043974783 0.015701668 -0.025919858 -0.022214385
way 0.07310955 -0.0903893 -0.06579721 0.013293661 0.007241585 0.013932614 0.035169825 0.037341565 -0.027617564 0.07489946 -0.04649372 0.02076173 -0.029242773 0.00714354 0.013536467 0.03402584
make 0.04196333 0.007683946 -0.058993343 -0.009922447 -0.0008474067 0.06504568 -0.003918316 -0.031030804 -0.041265994 0.042500112 -0.029403681 0.0016162486 0.0439811 -0.011214348 0.050741073 -0.0581503
them -0.06078488 -0.0102015985 0.11008448 0.08509994 -0.010214507 -0.0912819 -0.09546087 0.07012666 0.03448601 -0.06472131 0.07833465 0.06693786 -0.018595645 0.04493909 0.01437708 -0.03030528
too -0.04487614 -0.017971063 0.0032350773 0.022585157 0.05511132 -0.045495722 0.036295384 -0.015470963 -0.05060134 0.03085045 -0.03574971 -0.023806836 -0.025342258 0.01778058 -0.046762697 0.0009114541
could 0.052701358 -0.038032375 -0.071376756 -0.040771037 0.08234894 0.061896544 0.08038558 -0.022344202 -0.06083617 0.07115714 -0.086050406 -0.09197736 0.01351697 -0.024741383 -0.06219137 -0.07354603
any 0.14444587 -0.1866058 -0.065893546 -0.11538974 0.18244213 0.16694374 0.12507105 -0.06958555 -0.09396553 0.14033808 -0.11172229 -0.071662344 0.09234873 -0.11100503 -0.10270123 -0.086352006
movies 0.10618649 -0.15020333 -0.17333706 -0.13529989 0.15583621 0.10703155 0.037239294 -0.002360286 -0.055506583 0.043892454 -0.04586941 -0.04545792 0.07667572 -0.06798919 -0.08055427 -0.040728245
after 0.023019273 0.032522775 0.061924968 0.0019616093 -0.028034313 -0.004712606 -0.07673229 0.057460643 0.01415558 -0.064974934 -0.004740323 0.054065436 -0.035000324 0.03202474 -0.011454248 0.039372828
think 0.021136379 0.08069767 0.023488646 0.050564066 -0.06615011 -0.0576983 -0.043602582 -0.0058520334 0.058540527 -0.06036855 0.025327593 0.066617705 0.009828687 0.049836505 0.025967304 0.008924522
characters -0.06837846 0.01040936 0.023415469 0.0101748165 0.05594734 -0.06702743 -0.020051418 -0.006537097 0.024958275 -0.047567613 0.04929703 -0.019018104 -0.01910131 0.070552945 -0.012638118 0.02561742
watch 0.09003185 -0.10143812 -0.04970276 -0.048275694 0.1334147 0.05773029 0.0063723433 -0.060130827 -0.10900817 0.04631814 -0.06567572 0.015108618 0.029510722 -0.073703684 -0.062693015 0.04143388
two -0.035947144 0.023306848 -0.018303184 -0.024602672 -0.028868368 0.03649756 -0.034887034 -0.03338189 -0.042703412 -0.05877709 0.029816715 0.0055087176 -0.017072862 -0.014665986 -0.016691979 0.0080351
films -0.020124702 -0.00853904 0.038379315 -0.03556085 0.03229689 0.060791727 0.043479074 -0.049939126 -0.044152644 0.021577317 0.027583702 0.025719512 -0.020920992 0.012417203 -0.04055005 0.015863774
character 0.016279668 0.022782244 -0.024619518 -0.012413789 0.039678268 0.066059865 -0.013115317 -0.017454442 0.0018645967 0.003820931 -0.055319976 0.0069568227 0.01967365 -0.0050071795 -0.05818704 0.0015408616
seen 0.02447087 -0.12191237 -0.12780985 -0.027530845 0.079832524 0.038940553 0.04233924 -0.034481645 -0.08786305 0.08991864 -0.050771166 0.0043188822 0.079072036 -0.028576547 -0.10073106 -0.04900507
many -0.03535532 0.035949074 0.045625396 0.0216453 -0.025796851 -0.04157789 0.0070923097 -0.017692514 0.021695815 -0.004381373 -0.015658922 0.04048112 0.0011816429 0.042358838 -0.0066493396 -0.0048308712
being 0.07201183 -0.095034525 -0.12802236 -0.04789307 0.07495146 0.064016625 0.05381886 -0.013936508 -0.037396576 0.06750726 -0.044208005 -0.01598741 0.05324993 -0.058332026 -0.0146456305 -0.033467915
life -0.073748134 0.084697425 -0.0001673255 0.005696102 -0.010606045 -0.0050862064 -0.05642713 -0.015033843 0.06716219 -0.07987806 0.057895973 0.013564873 0.0045762006 0.055564247 0.037702937 0.055659864
plot 0.023643162 -0.09995208 -0.00857654 -0.061000478 0.020676559 0.101315565 0.077072844 -0.06893889 -0.08563097 0.06287053 -0.078028485 -0.04069705 0.010185768 -0.044251036 -0.022888765 -0.06142673
never 0.09275082 -0.18301035 -0.12603526 -0.11429713 0.07137692 0.08340937 0.049909405 -0.06036463 -0.09725255 0.09734969 -0.06645486 -0.11707006 0.027638061 -0.1149106 -0.05050813 -0.022444636
acting 0.049263146 0.007579247 -0.036086503 -0.03977236 -0.016842136 0.045352757 0.007504596 -0.019119091 0.0046624616 0.04393843 -0.03251159 0.004625629 0.052916534 0.032320403 -0.0458736 -0.031259708
little -0.06530661 0.030416047 0.03609857 0.11260872 -0.014404967 -0.10392003 -0.09053659 0.047046367 0.11342522 -0.059087023 0.050713047 0.13010892 -0.08620853 0.06775225 -0.032074805 0.087354176
best -0.0343288 0.031436503 0.052610476 0.039604325 -0.015525712 -0.09191093 -0.053096898 0.028477756 0.024583496 -0.11830882 0.12449688 0.031854525 -0.057414196 0.027027626 -0.025912587 0.08288856
love -0.0068859835 -0.0030546002 -0.034666058 0.028612528 -0.046117302 0.008819904 -0.016035462 -0.019114548 0.01819609 0.011748124 0.0421594 -0.0049938303 0.037231706 -0.032471642 -0.034378882 -0.027522374
over 0.050137125 -0.016023172 0.07113461 -0.034162894 -0.013732939 0.0353358 -0.016213253 -0.08445035 -0.046904538 0.0022488607 -0.012974631 0.014715409 -0.001100574 -0.04797068 -0.0056746737 -0.0422924
where 0.07448732 -0.13036934 -0.038739845 -0.0669953 0.016846564 0.05884652 0.03545132 -0.02300287 -0.026174717 0.060289335 -0.048830163 -0.035068564 -0.0074014673 -0.038028695 -0.047572527 -0.066835776
did -0.040461715 0.02069857 -0.01738748 -0.023217853 -0.0428773 -0.044705268 0.02004747 0.04022035 0.04960803 -0.027912453 -0.013319499 0.046313513 0.025787208 -0.01016093 -0.06017237 0.014283671
show 0.018619038 -0.030179197 0.005918499 0.033667553 0.010342424 0.0067958483 -0.023785524 0.09875939 0.023882091 -0.08925438 0.004897253 0.036960006 -0.028122744 0.03726544 -0.015834313 0.007191177
know 0.050644748 0.018396761 -0.033994373 -0.033445027 -0.01123601 0.053773277 0.019214805 -0.076459914 0.031516444 0.021813374 -0.06786845 -0.009004787 -0.0011655112 0.026530875 -0.11006203 0.023977319
off 0.007979485 -0.014917348 -0.014322018 0.059307575 0.0056899963 -0.000300676 -0.05535969 -0.025603248 0.018611694 -0.03225701 -0.019509763 -0.025312478 0.060869712 -0.029241703 -0.057515226 -0.018521857
ever 0.010280186 -0.027767116 -0.06251148 -0.03251856 0.110945255 0.055397123 0.027677748 -0.053989794 -0.015256891 -0.024691798 -0.055180013 -0.05188012 0.0052903118 -0.0028455083 -0.09026514 0.022716796
does -0.024325863 0.04331046 0.10296911 0.069895364 -0.020761572 -0.113117345 -0.12442651 0.09975408 0.119441085 -0.07305279 0.12250724 0.11901383 -0.047982037 0.08522663 0.024847668 0.0014764748
better -0.09133937 -0.014947966 0.044835404 0.051056206 -0.095058955 -0.11782903 -0.16351664 0.111161835 0.071806915 -0.15164192 0.10797552 0.17237036 -0.10846554 0.030936535 0.09676056 0.055710454
your -0.024781309 0.030307142 0.025229665 0.021733444 -0.02002499 0.017597096 -0.012688974 0.022003554 0.023664264 0.061821077 0.0032723793 -0.020182533 0.020235501 -0.043680843 -0.06062878 -0.0051579042
end 0.039276548 -0.035627358 -0.04216557 0.01864792 0.025197264 0.0060568806 0.041776977 0.010562745 -0.055468485 0.047919363 0.0011390655 -0.0313817 0.03715896 -0.033692177 -0.02271274 -0.071275115
still -0.015900495 0.038818445 0.06044856 0.07287454 -0.086039536 -0.04596716 -0.05743362 0.114272065 0.08671489 -0.07258758 0.087469004 0.10017773 -0.10337439 0.053501923 0.07046083 0.009678444
man -0.14441709 0.07343693 0.118086375 0.06290222 -0.119332485 -0.09633355 -0.08783074 0.10618628 0.07787868 -0.12767623 0.083313584 0.08094529 -0.08139263 0.13365716 0.09981466 -0.039550804
here 0.0454578 0.0040333327 -0.09748943 -0.098133065 0.002538931 0.087474644 0.08939127 -0.057410847 -0.07907475 0.0405674 -0.09182029 -0.085891224 0.062981226 -0.009127284 -0.0319463 0.062014658
these -0.014643255 0.008836893 0.088617966 0.0040203375 -0.05931366 0.011316444 0.010264515 -0.010534282 0.06229347 -0.07137673 0.040586505 0.018176857 -0.02788941 0.060581166 0.050053842 -0.058135275
say 0.067361124 -0.006256344 -0.09539575 -0.07571774 0.016439378 0.043444365 0.07843716 -0.003961244 -0.07157514 0.053734463 -0.010909496 -0.057892367 0.06052037 -0.099226065 -0.09115077 0.0379485
scene 0.007965006 -0.057880614 -0.015626118 -0.0024878888 0.052170467 -0.04101288 -0.008157619 -0.020328203 -0.03399383 0.004515958 -0.027125496 0.029235806 -0.00036563445 0.020295853 0.025705628 -0.049674217
while 0.001221969 0.026195265 0.0010130892 0.0033595818 0.014012264 0.039592296 0.006710408 0.0046187392 -0.023963869 0.0012108561 -0.014493659 -0.005412387 0.034121074 0.006260904 -0.018990017 0.009242236
why 0.067635335 0.008321907 -0.03429998 -0.07082883 0.02822437 0.061160985 0.021184541 -0.01304685 -0.041407023 0.056814786 -0.031806942 0.0011478233 0.0032229836 -0.03320441 -0.054990016 0.00020544401
scenes -0.019336699 0.002635347 -0.0048364005 0.012290932 -0.027615594 -0.0147358505 -0.037974074 -0.032339312 -0.013043906 -0.0053657293 0.05924752 -0.0125686675 -0.035861026 0.04446743 -0.022341149 -0.0021366756
go 0.016223637 -0.054288886 -0.013174157 -0.04115513 0.08548731 0.055836715 0.057507075 -0.029709805 -0.041724652 0.015462071 -0.0013834344 -0.039163813 0.03994234 0.0018341624 -0.012433569 -0.008192615
such 0.014291291 0.011172205 0.053688623 0.0061147 -0.021924613 0.027198585 -0.0030617444 -0.01995458 0.0323128 -0.032402154 -0.03613196 -0.03091334 0.032016322 0.045190904 -0.06390531 -0.025029177
something 0.1075644 -0.21236877 -0.11514708 -0.12614138 0.119332366 0.102759995 0.11280167 -0.12730627 -0.06985591 0.11699327 -0.09029364 -0.06876273 0.05277038 -0.15290767 -0.031400714 -0.045918472
through 0.0024499316 0.022277614 0.043995433 -0.011808853 -0.07090933 -0.007094901 -0.019972496 -0.016058577 -0.019246513 -0.012547541 -0.016035888 -0.03834923 0.021646464 -0.020088367 -0.0145628415 -0.013255207
should 0.18844427 -0.17265262 -0.12970407 -0.116844505 0.12809497 0.20541684 0.10455269 -0.11127413 -0.14784157 0.13440828 -0.14851439 -0.17089933 0.15336008 -0.16684347 -0.1324244 -0.09873175
back 0.058128815 -0.0027492498 -0.0102744885 0.010278813 0.04769495 -0.032752834 -0.043575168 -0.026010673 -0.035415784 -0.05346425 0.029080719 -0.004386711 0.0024524198 -0.019880611 -0.031224465 0.016232483
i'm 0.1537917 -0.16407959 -0.10680561 -0.13455784 0.13393307 0.14364323 0.06852442 -0.09695063 -0.044988807 0.12718743 -0.041793596 -0.08710222 0.12108143 -0.07105143 -0.08177637 -0.03983346
real -0.036412008 -0.019837456 0.09259795 0.0005921224 -0.039147325 -0.017409928 0.012281815 -0.03592371 0.056786872 -0.049806435 0.03114379 -0.00048172174 0.033916753 -0.011088536 -0.029518548 0.07856742
those 0.02575218 -0.07409977 -0.016511109 0.014792335 0.035786264 0.045047734 0.038404282 0.012202742 -0.07599628 -0.006827839 0.011571203 -0.05184044 -0.046491154 -0.011087716 0.079471 -0.09311764
watching 0.0154697625 -0.08117941 -0.11869217 -0.0066594672 0.046513524 0.06840542 -0.010251181 0.04138169 -0.017778898 -0.0345038 0.039320704 0.0070115947 0.008680208 0.0009674845 -0.009261929 0.10471283
now -0.015452716 -0.008551942 0.014766206 -0.009783509 -0.03223012 -0.051187687 -0.022089353 0.064651236 -0.010273925 -0.040763717 0.040152654 0.04079397 0.013078512 -0.0083352765 -0.03427438 0.079122625
though -0.03382489 -0.008361782 0.06609613 0.0506119 -0.026992185 -0.0358041 -0.022131588 0.018172173 0.078965396 -0.022880398 0.08481372 0.0353707 -0.08186613 0.01708421 0.038756043 -0.033986926
doesn't 0.035702832 0.0038864044 0.049147252 0.052603688 0.04436901 -0.036005232 0.03215956 0.06220805 -0.018065715 -0.04822831 0.033170156 0.035103202 0.017932178 0.019076264 -0.03815929 -0.008118281
years -0.056472085 0.089580126 0.06652584 0.106994174 -0.09010192 -0.028214198 -0.03910133 0.07600509 0.049245372 -0.053534567 0.13475901 0.120528586 -0.075409286 0.09088564 0.034506947 0.1120156
old 0.05243203 -0.06093774 -0.09264062 -0.023688048 0.082383275 0.035081312 0.06688889 0.011190556 -0.07589495 0.06742589 -0.07449373 -0.0034531432 0.06474839 -0.06734539 -0.022090716 -0.02626954
thing 0.12400276 -0.11474443 -0.096262544 -0.09764053 0.107301235 0.15035275 0.09351288 -0.110318765 -0.16137749 0.13856415 -0.10728534 -0.08920684 0.06405176 -0.11344379 -0.08147523 -0.12930526
actors -0.032061446 0.046568364 -0.037951294 0.059281062 -0.075285554 -0.032566696 -0.02190311 -0.00497851 0.07289241 -0.015116326 0.0101891 0.09288083 -0.020682426 0.03170805 -0.011478813 0.06451413
work -0.007944885 0.010002137 -0.017427238 0.079231046 -0.0034457564 -0.01288943 -0.092782125 0.07542718 0.0061833197 -0.075888604 0.03960995 0.038189974 -0.023377733 0.053898226 -0.030495698 0.06267324
10 -0.069651425 0.02215835 0.09926903 0.080048114 0.097797126 -0.096902594 -0.17453602 0.12457542 0.04882181 -0.07620849 0.15259711 0.15607916 0.026035702 0.12155889 -0.1949121 0.21756361
before 0.0026699002 0.06798929 0.049331706 -0.012176268 0.030275501 -0.0511148 -0.00807904 -0.031681094 0.021392895 -0.054027803 -0.00984337 0.053922076 -0.0036805167 0.042329125 0.017138585 0.0425452
another 0.101408266 -0.09857759 0.051306583 -0.06171386 0.065241724 0.0912108 0.054953773 -0.11203661 -0.05370367 0.052613463 -0.035015047 -0.029749773 0.0318558 -0.03610081 -0.010959983 -0.10988953
didn't 0.06276227 -0.09780957 -0.078111805 -0.07702281 0.08464567 0.15605086 0.12739524 -0.08607442 -0.12530276 0.1496079 -0.16393825 -0.07697472 0.10596719 -0.1115522 -0.13915887 -0.012723913
new 0.039263465 -0.03606557 -0.017157346 -0.013015077 -0.000766067 0.014112388 -0.0035213954 0.075272895 -0.008881892 -0.064270005 0.0657222 0.057202026 0.00447766 -0.008418244 0.026160115 -0.02598718
funny 0.15856503 -0.08714837 -0.102282725 -0.08898913 0.062019903 0.13057436 0.090639524 -0.07031228 -0.086612165 0.06941612 -0.13083671 -0.05404214 0.09538036 -0.1325283 -0.086505376 -0.037317723
nothing 0.111972965 -0.18527736 -0.12830693 -0.09909556 0.057058197 0.1383377 0.06235895 -0.14853199 -0.07294272 0.050944358 -0.089789525 -0.05607254 0.07077808 -0.1475593 -0.00903857 -0.08242429
actually 0.064668655 0.020808546 0.031483296 -0.05640215 0.018714359 0.018577611 0.032011535 0.0038021347 -0.062858164 0.052730482 -0.008630493 -0.06999588 0.037903026 0.011369609 -0.011944557 -0.049916945
makes -0.025770707 0.07473721 0.05128628 0.031004665 -0.014925292 -0.025814902 -0.087392375 0.01284689 0.076572254 -0.087963134 0.060089953 0.10973854 -0.015988821 0.05911225 0.01581116 0.028985454
director 0.08402648 -0.061567023 -0.07725458 -0.053244215 0.09059409 0.039848313 -0.014344653 -0.026191419 -0.020998565 -0.019331072 -0.012915443 -0.08020398 -0.012065838 -0.013217023 -0.074252516 -0.0110389
look -0.07204352 0.08679471 0.040042486 0.016034426 -0.03933485 -0.07169799 -0.07815378 0.05298573 0.032301366 -0.015056717 0.023549803 0.047584593 -0.08399598 0.096559204 -0.0052044443 0.018998763
find 0.11579328 -0.09526411 -0.028789612 -0.11256702 0.10691248 0.06894949 0.065545775 -0.12849474 -0.054721154 0.08612264 -0.031863187 -0.047251515 0.036365222 -0.050866336 -0.10363309 -0.024844455
going 0.024714956 0.0020306255 0.10898664 -0.039480805 0.00083858555 -0.007371459 -0.033390656 -0.008969769 -0.0058180355 -0.06028674 0.0100520495 0.029231979 0.03384608 0.0040242216 -0.004681269 -0.03606558
few 0.071111575 -0.06983145 -0.011427317 -0.044612117 0.02063426 0.052067276 0.06512591 -0.059375446 -0.022368964 0.0906185 -0.020548133 -0.04166025 0.01650908 -0.011763245 -0.06798313 -0.0034659237
same 0.048160825 -0.042857405 -0.025196843 -0.054028273 0.03556357 0.093419984 0.02307591 -0.055162024 -0.065623105 0.034430943 -0.026608171 -0.022822047 0.05560429 -0.014338045 -0.008185293 0.005026587
part 0.12595059 -0.11245691 -0.030331217 -0.079841204 0.0716937 0.10980068 0.09212479 -0.11359612 -0.05870735 0.12757523 -0.048888486 -0.11923369 0.07020343 -0.10510007 -0.030208271 -0.044668563
again -0.095808946 0.09122627 0.06525463 0.009072384 -0.033514865 -0.050705027 -0.103615455 0.0049680816 0.096202515 -0.09011832 0.070101164 0.05044352 -0.009176276 0.09529718 -0.020120706 0.02369747
every -0.015638879 3.3565426e-05 -0.03672049 0.03773673 -0.034418445 0.0032418482 0.018006034 0.012657052 0.06847761 -0.047639858 0.067394935 0.025128605 -0.06210735 0.066695124 -0.04860732 -0.0016355513
lot -0.016480198 0.00014293363 0.032772787 -0.025289122 0.0058521237 0.032877307 -0.058754325 0.055849113 0.017443327 -0.04875431 0.044496186 0.009004684 0.002272611 0.058344007 0.059314992 -0.051389832
cast 0.06010211 0.01250848 -0.0005402003 0.029231554 0.061263733 -0.009992592 0.0016477763 -0.048879854 0.0057421727 0.0074886945 0.030511374 -0.03664958 0.035685044 0.0034617498 0.04596255 -0.07916389
us 0.06769363 -0.001844858 -0.110190146 -0.017264366 0.060948826 -0.017893853 -0.039586972 0.02295342 -0.038129635 0.048409153 -0.011923881 -0.03646572 0.02789031 -0.013940582 -0.0265164 0.06660943
quite -0.017065547 -0.021753067 -0.08231139 -0.028162505 -0.026444819 0.007938683 -0.007565255 0.05740771 -0.039153546 -0.0149574885 -0.004505778 -0.0019184096 -0.0038848824 0.03181452 0.011298234 0.035461638
down 0.037661202 -0.052382164 0.0054813456 0.031740595 0.023927152 0.034289066 -0.034814466 -0.048087195 -0.0070929783 0.03504437 0.02327145 -0.045738373 0.052019905 -0.004103038 -0.021993475 0.025818098
want -0.034863856 0.08413148 0.06355887 0.013495917 -0.02237257 -0.03744884 -0.00090475567 -0.05204076 -0.04869514 -0.032665282 -0.017399492 -0.023469398 -0.016761353 -0.031535868 -0.014328852 -0.0023372706
world 0.09424436 -0.090964295 -0.10427733 -0.05100411 0.06121594 0.031579174 0.075010344 -0.045919493 -0.11216275 0.05083466 -0.108001105 -0.09649727 0.10634603 -0.05682364 -0.074301325 0.018690718
things 0.09253505 -0.07328889 -0.013492052 -0.074753486 0.03127038 0.08397234 0.01982691 0.026581012 -0.015739877 -0.00726493 0.009506769 -0.024358988 0.05913055 -0.051281676 -0.07566161 0.06863937
pretty 0.0065019657 0.06520549 0.08616787 0.053668294 -0.008326236 -0.041204296 -0.06125633 -0.013031432 0.042138685 0.0019259308 -0.014930904 -0.027209096 0.0063103545 -0.015780356 0.03236431 -0.038627695
young -0.08648576 0.075732715 0.079157226 0.02824357 -0.12106064 -0.028488891 -0.029843071 0.0759699 0.09541973 -0.02151327 0.085347064 0.030137885 -0.10223536 0.02866375 0.06578275 -0.0420952
seems 0.04798573 0.014627775 -0.07067539 -0.01736772 0.06196428 0.046944954 0.040259942 0.010463396 -0.040257208 -0.020826705 -0.04254126 0.034043115 0.019798622 0.016237358 -0.0968659 0.07163508
around -0.0642531 0.13619457 0.12404921 0.07793704 -0.023626843 -0.10963528 -0.054913513 0.121508025 0.0988609 -0.12654012 0.060807105 0.07318523 -0.12249629 0.06336413 -0.00899492 0.06759761
got 0.040751122 0.026553 -0.06676408 -0.05306598 -0.011603498 0.012211118 0.019463351 0.022037663 -0.021059843 0.039846517 -0.04471456 -0.013542222 0.021495663 -0.06616821 -0.055862803 -0.03537555
horror 0.0019683877 0.02905279 -0.021901399 -0.0361313 -0.0039706277 -0.007756901 0.0369399 -0.01561539 -0.047871195 -0.012286235 0.053246714 0.043497898 -0.017871128 0.017241377 0.061405964 -0.019288944
however 0.021647524 -0.10865283 -0.02954321 -0.049622163 0.061108924 0.0023473739 0.06005844 -0.048701018 0.0140008265 0.07706675 -0.07086286 0.013029353 0.059311315 -0.065551765 -0.016633382 0.04413814
can't 0.027523903 -0.05273121 -0.07292335 -0.09315313 0.00050314516 0.10732546 0.073930025 -0.017625446 -0.05178166 0.016594209 0.016686471 -0.04649676 0.05999139 -0.009056045 -0.0044382717 -0.07869196
fact -0.008511894 -0.040640574 -0.02851686 -0.030078115 -0.03911777 0.00970768 -0.002217069 0.062578164 -0.009999958 -0.028271753 0.008569965 0.054500487 0.015239085 -0.03473963 -0.029885473 -0.030474037
take 0.057994183 0.003082978 0.047954194 0.012786473 0.026317267 0.043443486 -0.011577345 -0.018556336 -0.0021973797 -0.015820023 0.035669155 0.048197053 0.04354786 -0.007198081 -0.044100177 0.01917502
big 0.060869914 -0.08697448 -0.024171459 -0.0058504995 0.031011885 0.011450235 -0.024498364 0.06641116 -0.050177377 -0.045753185 0.030333297 0.015998097 -0.02842782 -0.056232285 -0.030211052 0.007184082
enough 0.04472694 -0.02392688 -0.08655059 -0.10095786 0.08012402 0.1144784 0.107469834 -0.072548054 -0.060942713 0.09815058 -0.10132981 -0.09926255 0.011250468 -0.050718088 -0.09781386 -0.020989627
long -0.0117069455 -0.00369561 -0.015789108 -0.03251448 0.006745872 0.033348933 0.021567598 0.036658786 0.019605072 -0.022695364 0.03536422 -0.050152462 -0.02319652 0.012546492 -0.02216789 0.009784063
thought 0.08978883 -0.07143758 -0.025404787 -0.07418547 0.01515362 0.083021194 0.09839187 -0.068377554 -0.082190536 0.024913752 -0.056854427 -0.020041639 0.00813785 -0.042021602 0.0228842 -0.08527284
that's -0.04916482 0.011110067 0.024311615 0.04416202 -0.01108766 0.018223811 -0.015024547 0.041958366 0.02879032 -0.06761757 -0.0030855972 0.032692816 -0.026724152 -0.00999169 0.008883454 0.07166078
both -0.077475935 -0.001449327 0.037239652 0.0718389 0.011450789 -0.07496135 -0.029116118 0.05446484 0.052270785 -0.082691096 0.030029267 0.07513693 0.0022087675 -0.015888823 0.014665178 0.025441969
between -0.010085268 0.044491407 0.075967595 0.029787822 0.02288212 -0.07337749 -0.071085945 0.015687998 0.07507219 -0.07303285 0.04960282 0.022727523 -0.032481868 0.06869014 -0.0017205824 0.006571298
series -0.085985176 0.061842803 -0.010503206 0.0457805 -0.011826378 -0.08008474 -0.07313922 0.024715489 0.040186975 -0.066297896 0.0042468426 0.0579085 -0.023841305 0.0044346317 0.03588621 0.055329397
give 0.01663962 0.0037315697 0.090166114 -0.03399493 0.11312163 0.07671171 0.032907 -0.017468808 -0.08267838 -0.024252059 -0.043599505 6.581895e-05 0.062229164 0.017211188 -0.030513003 0.02503771
may 0.014451158 0.03229507 -0.01818645 0.031098472 -0.06400519 0.026652712 -0.024401963 0.018698184 -0.017017996 -0.056165677 0.023441138 0.053071655 -0.058024872 0.042805772 0.06721747 -0.006908986
original 0.032708194 -0.027733067 0.062126063 0.012022724 0.0427576 -0.03166161 0.045639887 -0.005648473 0.025394587 0.0125066815 0.02010992 -0.009563155 -0.042072162 0.01848334 0.06531491 -0.059176803
own -0.0017149809 0.010117858 0.0042263055 0.043098435 -0.033554584 -0.00520463 -0.059290785 0.08731111 0.061667465 -0.07321606 0.026549425 0.042264532 -0.066731125 0.013433448 -0.007719758 0.0085056815
action 0.016497167 -0.0062177107 0.04397146 -0.0059551173 -0.026743975 -0.016562419 -0.07006968 0.08263411 0.043838374 -0.00938034 0.093318775 0.02560521 -0.042711195 0.036112506 -0.049835052 0.08510961
i've 0.064360015 -0.059479102 -0.05678693 -0.068773866 0.052429054 0.018702963 0.025657533 -0.03169651 -0.106335744 0.0027958197 -0.09191023 -0.009303004 0.0047044023 -0.08080092 -0.079844765 0.041485317
right 0.0008852045 -0.030834693 0.03518411 -0.036945518 0.07429546 0.017834194 -0.0025164066 -0.006014368 -0.021456942 -0.015144318 0.0049490626 -0.017871078 -0.025330542 -0.012310498 -0.050165214 -0.0042464323
without -0.012827546 -0.02628307 0.0128983585 0.027860599 0.0019660883 -0.07542474 -0.036050867 0.029360967 0.032044854 -0.04098455 0.07490599 -0.008826081 0.002335569 -0.0050495197 0.043963715 0.03707054
always -0.092542075 0.11539883 0.03493332 0.12406063 -0.11576629 -0.13895299 -0.1401457 0.072435744 0.057829063 -0.094549164 0.06807141 0.09042926 -0.07465273 0.1224175 0.04873761 0.029668642
times 0.017060407 0.044246826 0.01846917 0.05646048 -0.037184868 -0.05666848 -0.04406259 0.03751235 0.020626914 0.029595075 -0.019483097 0.0054227645 0.017439272 0.038221132 0.045558456 -0.0252137
comedy 0.046401575 -0.01667345 -0.08071889 -0.06441963 0.030130595 0.046087995 0.027400387 -0.048170403 0.0068866303 0.079183914 -0.030506367 -0.03215197 0.03258477 -0.03170087 0.06405411 -0.07186706
point 0.07897626 -0.06924918 0.0010671597 -0.038025197 -0.0094904415 0.045944076 0.101894364 -0.11551758 -0.04363396 0.11552405 -0.060091745 -0.084180124 0.087409995 -0.12740539 0.02976571 -0.07898343
gets -0.015834432 -0.041822698 0.0880682 -0.032969423 0.010204327 0.041115966 0.05082945 -0.026840748 0.0013082467 0.032930467 -0.014186485 -0.023885908 -0.038555283 -0.03704966 0.0422487 -0.021324046
must -0.07554851 0.12558699 0.05931216 0.04369321 -0.004514618 -0.08427639 -0.1293847 0.047161188 0.12906691 -0.12060437 0.113503605 0.1128468 -0.028867085 0.071282394 0.01339168 0.120859385
come -0.0056328005 0.012231008 -0.042231776 -0.02628392 -0.029228695 0.06380277 0.03822911 0.03379783 0.031435285 0.034672953 0.033163298 -0.046166807 0.023260685 0.008908916 0.005356019 0.01274867
role 0.0402604 0.06668023 -0.023389788 0.020211022 -0.057785522 -0.011878844 0.0029259387 -0.027292283 0.03878175 -0.014814137 0.0030200277 0.040117793 0.015275568 -0.011221608 -0.020502696 -0.032035057
isn't 0.027228745 -0.030867718 0.022266109 -0.032638837 0.03489221 -0.005078854 -0.024053764 0.065834075 -0.034142647 -0.057591982 -0.01323759 -0.005814061 -0.06071176 0.007651441 0.026082871 0.0074559227
saw -0.010998415 0.091909096 0.04821921 0.01087267 0.014028353 -0.0108912205 -0.086367786 0.074021496 0.00028323955 -0.031248016 0.025147848 0.07592357 -0.021483293 0.06681266 0.042070318 -0.0037710047
almost 0.02767871 -0.06935016 -0.00075320294 -0.0416417 0.04323901 0.0020433448 0.043258842 -0.04142162 -0.062227026 -0.042195812 0.03685084 -0.044850063 0.029602151 0.016830903 -0.024781356 -0.006330116
interesting -0.017827911 -0.06130156 -0.05773667 -0.056929555 0.028813943 -0.0071077375 -0.023778932 -0.040268626 -0.0043472755 -0.011492475 0.020612678 -0.036441572 0.03507831 0.023970498 0.018213417 -0.051183112
least 0.042224444 -0.014937461 0.012469472 0.006051213 0.034949984 0.030857384 0.013188099 0.059820283 -0.05366058 0.040209316 0.04235006 -0.00040269125 -0.038641345 -0.054394014 -0.038475823 0.0613059
family -0.080356516 0.026402723 -0.026811758 0.073772274 -0.12914737 -0.109298825 -0.13030931 0.107693985 0.067070365 -0.093652345 0.102832556 0.122740336 -0.13837641 0.13230719 0.073770635 0.09171296
done 0.0391422 0.012531016 -0.12672503 -0.039711088 0.064811595 -0.006360185 0.01215438 0.04589331 -0.020859417 -0.0029103688 0.009143103 -0.041663345 0.016779944 0.026077647 -0.07125974 0.04229036
there's 0.09996556 -0.013593656 -0.10464404 -0.028370248 -0.0049915584 0.031455856 0.084722966 -0.009495655 -0.018572444 0.028820472 -0.054147642 -0.096744314 0.08698053 -0.08658202 -0.026836913 -0.049827754
whole 0.047885325 0.0085640205 -0.0069729574 -0.022268526 -0.007977569 -0.0023876172 0.018531376 -0.0382323 -0.022299124 -0.012177043 0.01325924 0.050243787 0.023940122 -0.03537254 -0.014254288 0.008128458
bit 0.050778233 0.0012374771 -0.021089654 0.026245024 0.036050886 0.06465079 0.023536861 -0.058806155 -0.0027598608 -0.014237375 -0.058384728 -0.054874096 -0.029328141 0.016175801 0.015552819 -0.0424961
music -0.12546319 0.14166498 0.03773133 0.07212448 -0.035759393 -0.06819595 -0.07192151 0.0950558 0.07309448 -0.13540104 0.11139578 0.13004678 -0.09976988 0.12639983 0.039720263 0.05599787
script 0.056781307 -0.01962478 0.08454116 0.011033656 0.050645538 0.055898838 -0.03353666 -0.028131623 -0.053458784 -0.032520484 0.015060905 -0.045654286 0.05438723 -0.0012223807 -0.089094654 -0.03361904
far 0.06375297 -0.11170613 -0.059248302 -0.02358206 0.08161067 0.0768781 0.09328213 -0.099465035 -0.059494395 0.048807718 -0.047952294 -0.044383533 0.06538813 -0.01613526 -0.02117841 -0.101673886
making -0.06558541 0.05293714 0.058225315 0.002975777 -0.0016120989 -0.009673045 -0.0033326165 0.079588756 0.00091208116 0.008664433 0.06603132 0.025947964 -0.04960607 0.0637841 0.054474186 -0.016645346
guy -0.02176055 0.047549285 0.028471965 -0.0030000727 0.01921786 -0.016309096 -0.052636117 0.046732515 -0.010692334 0.004416193 -0.020121755 0.025983738 -0.05134808 0.055533577 -0.041451626 0.061712947
anything 0.196656 -0.14512141 -0.11407721 -0.13638327 0.21375985 0.2210787 0.11601938 -0.16134371 -0.16245675 0.13587004 -0.19883634 -0.16556764 0.12901355 -0.21315497 -0.07473097 -0.08853355
minutes 0.1100773 -0.15374774 -0.21904068 -0.1910282 0.15289667 0.14035378 0.159156 -0.11058258 -0.19456902 0.14280613 -0.09326053 -0.101318486 0.13581362 -0.115381494 -0.15514919 -0.00894732
feel -0.011417975 -0.05237436 0.027755965 0.005858163 -0.046595477 -0.020989917 -0.02556622 0.040200867 0.013238032 -0.08670787 0.079087496 0.025354382 -0.0447405 0.06260799 0.0065814005 -0.044863846
last 0.013176297 -0.056173448 -0.030808728 0.01015196 0.032821167 0.07132853 -0.03862197 -0.045896385 -0.058973737 0.054673158 -0.00096956367 -0.051543143 0.081480734 -0.026711894 -0.066325046 0.0028977566
since -0.03982717 0.017396344 0.05583411 0.025802342 -0.033123486 -0.016507922 -0.012721012 0.022346526 0.017933354 -0.07815214 0.06587604 0.017706443 -0.0017461175 0.06796038 0.033099398 0.07083204
might -0.019570906 -0.0021228313 0.07179719 0.01938645 0.015427925 0.040894117 -0.027937328 -0.028000247 0.03615886 0.010817756 0.010074085 -0.004429502 -0.012446299 -0.023523733 0.03182984 -0.06572438
performance -0.1041651 0.09790455 0.056542173 0.07602485 -0.09078103 -0.10380404 -0.11928773 0.10032646 0.09879951 -0.055387024 0.035174754 0.03628944 -0.10390123 0.10333506 0.110670365 0.01902104
he's 0.0025983786 0.0486425 0.07762615 0.030478008 -0.014452709 0.050838433 -0.037584256 0.010356164 -0.033864982 -0.014259394 0.02415654 0.045128483 -0.021961195 -0.019270672 0.07244367 -0.02192403
2 0.0804443 -0.059224598 -0.059301075 -0.117522046 0.08049609 0.10604422 0.099196084 -0.005534478 -0.105195485 0.09078845 -0.06541107 -0.08432438 0.09319358 -0.082490124 -0.061808676 -0.09520421
probably 0.0941875 -0.12466097 -0.060622107 -0.09830415 0.017630665 0.03220267 0.080256656 -0.03192917 -0.083322495 0.07762023 -0.08600639 -0.08554627 0.031705186 -0.06075425 -0.07667239 -0.040301632
kind 0.051811554 -0.09113633 -0.034663737 -0.06455132 0.09282007 0.04466339 0.053540006 -0.058072947 -0.05584853 0.12065459 -0.09306761 -0.122073226 0.0477097 -0.10231484 -0.030961579 -0.04292874
am -0.067791186 -0.010656548 0.06985404 0.06836377 -0.09460297 -0.086898215 -0.018721152 0.055269677 -0.0057501523 -0.07094244 0.009763831 0.05510159 -0.0015357705 0.033885956 0.039685257 -0.047669027
away 0.12424073 -0.14174244 -0.08224421 -0.11793915 0.07654683 0.07932386 0.104962125 -0.05619102 -0.07655855 0.039061144 -0.0789667 -0.05406396 0.09500654 -0.112130016 -0.007082515 -0.0178109
yet -0.001136772 -0.025382359 -0.055870783 -0.04592246 -0.043331224 0.0460232 0.031635117 0.0124608185 0.03786066 -0.05988869 0.002939132 0.020558905 -0.058029465 -0.014814869 0.067034684 -0.09214945
rather -0.03482521 0.12306697 0.06923686 0.056658946 -0.08360334 -0.064081155 -0.055692557 0.075930156 0.079866156 -0.033716172 0.044487897 0.08024041 -0.038805395 0.03984138 0.1243488 0.038305447
tv -0.0151544325 -0.0735163 0.034760863 -0.061475556 0.021302065 0.057571027 0.03661547 -0.03664856 -0.008983102 0.0075781974 -0.0092144795 0.0268391 -0.039819684 0.020565467 0.044316325 -0.0497313
worst 0.16797373 -0.16039704 -0.09519179 -0.14373852 0.16843113 0.12384082 0.18405065 -0.1488631 -0.14830568 0.09385651 -0.14984377 -0.13129695 0.16042328 -0.16549811 -0.22432753 -0.050887123
girl 0.050668176 0.041292638 -0.06579136 0.030067448 0.03914706 0.0013901434 0.0069231726 -0.02732462 0.036605004 0.037214577 -0.04999527 0.02092612 0.056231275 0.024944426 -0.01950242 -0.023222934
day -0.01448839 0.075627446 -0.019118816 0.059441883 -0.027414443 -0.05901452 -0.006903984 0.038273662 0.07148938 -0.05490542 0.047547985 0.039127916 -0.06425842 0.07301693 0.044471066 0.0096719945
sure -0.077745445 0.026038911 0.012046954 0.056214783 -0.048703134 -0.0035354572 -0.003779669 0.06153112 0.017487777 -0.008798356 0.025979072 0.028018273 -0.015867485 0.081544146 -0.007810266 0.078840956
fun 0.061308526 -0.103295706 -0.13985646 -0.028103726 0.06804938 0.05912707 -0.01776121 0.013046062 -0.11929774 0.08347175 -0.020605788 -0.031482127 0.11192642 -0.11087404 -0.15926819 0.01250262
hard 0.08351656 -0.11159562 -0.050685603 -0.08118203 0.004298345 0.05506288 0.013695503 -0.028995622 -0.06229725 0.03471297 -0.007866511 -0.050969202 0.067699 -0.043794572 0.008746223 0.053033654
woman -0.03181906 -0.02042593 0.003241008 0.016706737 0.033774585 0.030360933 0.018230587 0.047754467 0.0040313015 -0.034265157 0.006402983 0.02178116 -0.06839812 -0.031928025 -0.0005311008 0.06463686
played -0.0037855462 -0.004149759 -0.012077215 -0.039054338 0.02816275 0.06194447 0.02712868 0.03680091 -0.091397226 0.07339353 0.016895536 -0.05102585 0.08589044 -0.07426505 -0.045843557 0.022741886
each -0.08553115 0.03228445 0.114866756 0.12182551 -0.024439497 -0.10121797 -0.05603756 0.05969448 0.0764128 -0.094413646 0.10318766 0.081758 -0.106502324 0.03499068 -0.022302166 0.013790555
found 0.050008226 -0.06027414 -0.0885948 -0.046009846 0.035041414 0.03869724 0.046973158 0.0065228147 0.014663572 -0.022049462 -0.03267427 -0.016027685 -0.033898525 -0.011238071 -0.00359993 0.009977123
anyone 0.041575447 -0.017688494 -0.032694437 -0.062118262 0.09704661 0.073684275 0.04262422 0.03814005 -0.021791391 -0.007977182 -0.0069716806 0.046529945 0.025919084 -0.04103586 -0.07103566 0.10635178
having -0.011835244 0.06840215 0.052987188 0.074415535 -0.0110335415 -0.0024834913 -0.09425721 0.0457681 0.044643573 -0.06662235 0.060785536 0.030193137 -0.013736815 0.049418833 0.06137158 0.0049260966
although 0.047418024 -0.002785061 0.037155923 -0.07624966 0.020900639 -0.009067024 0.08016068 -0.0049056937 -0.06358558 0.0020107734 -0.07602067 -0.08384761 0.0075368765 -0.045311935 0.030256089 -0.117593095
especially -0.013119484 0.046116147 -0.0044150567 0.034508698 0.0037712299 -0.002103497 -0.008516014 0.027298886 0.008024815 -0.030657759 0.03647735 0.009374318 0.0156886 0.020142881 0.033314884 0.09023132
our -0.0018611352 -0.006227765 0.031708226 0.024296654 0.00091071834 -0.015158211 -0.068125516 0.037735622 0.00029101368 -0.061387658 0.08914924 0.09038302 0.006312334 0.03938911 0.043368086 0.027633317
believe 0.07073537 -0.042302813 -0.06181205 -0.05879873 0.042947106 0.013852209 -0.0017702546 0.004053928 -0.056546066 -0.03044202 0.021403208 -0.07096132 -0.015881723 0.022105256 0.014244667 -0.028171256
course 0.0020925447 0.035718776 0.0059761326 0.051268402 -0.04842232 -0.017319266 -0.03108466 0.03194137 0.012439939 -0.040310875 0.08187075 0.048073653 0.001551542 -0.02133264 0.007956162 -0.038396936
comes 0.0065646833 -0.005015013 0.002333853 0.061788734 -0.058704022 0.0074756905 -0.0010919365 0.0640499 -0.018144736 -0.07125603 0.031672813 0.06769939 -0.027899124 0.07234212 -0.010773455 0.065149285
looking 0.032482427 0.022268975 0.033505395 0.02966312 -0.013221434 0.02724721 -0.037630986 0.017199079 0.03182246 -0.008521695 -0.042029556 -0.03323982 0.019124476 -0.030277258 0.06461801 -0.024133813
screen -0.05696717 0.013458655 0.02816083 0.103281476 0.0469847 -0.06203317 -0.040236816 0.08957888 0.0732424 -0.07876225 0.1074522 0.0670222 -0.034184143 0.015324033 -0.0072654914 0.10205343
trying -0.034804795 0.010050699 0.03271074 0.013576005 -0.07007816 -0.021314383 -0.10880577 0.088970296 0.0714906 -0.035684846 0.07343793 0.016703907 -0.052801967 0.025524084 0.04591309 -0.01855052
set 0.009410901 0.06405704 0.07382868 0.026746001 0.026593318 -0.045796745 -0.011222191 0.013238891 0.03742345 -0.07315305 0.01362071 0.07265745 -0.013197293 0.06285909 -0.022426937 -0.01234503
goes -0.006139249 0.026413655 0.012055545 0.03689339 -0.059013866 -0.073668435 -0.043299414 -0.0018235106 0.00164189 -0.0712953 -0.0072056507 -0.00044528805 0.00492083 -0.014553168 0.06512086 0.031600527
looks -0.04666708 0.038703814 -0.010529364 0.040415 0.0030574137 -0.037245147 0.0075863106 0.04481812 0.027780648 0.032828756 0.027582984 0.051298767 0.028199065 -0.004518622 0.0026645502 -0.0054651345
place -0.09647383 0.12699018 0.06310626 0.051177412 -0.08693485 -0.037774675 -0.07373707 0.0844789 0.03531028 -0.056400016 0.065719776 0.04220762 -0.046225544 0.07197755 0.0673845 -0.036568932
book 0.028662013 0.01995389 0.04186854 -0.0073673734 0.046758894 0.014442221 -0.0075462926 0.036615226 -0.019644523 0.031025318 0.05671697 -0.043783974 -0.034309294 -0.032137483 0.04413332 -0.032225963
different 0.0553342 -0.05630319 0.012430962 -0.065502994 0.02937826 -0.0060636764 -0.013858432 0.029411243 -0.05394613 0.014428327 -0.022822987 -0.047270205 0.023722881 -0.05625637 0.039291687 0.002597921
put -0.10565456 0.036974292 0.11352456 0.044426996 0.0005472536 -0.10763202 -0.03544494 0.050169315 0.037000854 -0.098676406 0.06454275 0.07581866 -0.082562 0.060569245 0.058165263 0.03597299
ending -0.079716064 0.055593286 0.014720674 0.102897994 -0.030806545 -0.049454976 -0.072751544 0.05483776 0.12375362 -0.040873453 0.13970119 0.13476859 -0.046479404 0.096064515 -0.03684965 0.10737809
money 0.13412657 -0.14987488 -0.1867597 -0.165006 0.16024539 0.17762038 0.17671606 -0.044323772 -0.12961681 0.09546199 -0.12588179 -0.14278664 0.10896542 -0.19710313 -0.16382712 0.045238018
maybe -0.023987815 0.07149441 0.07688055 0.014495837 -0.021447646 -0.010624056 -0.07734417 0.058922473 -0.015573766 -0.02612597 0.024402335 -0.0019989712 -0.0805232 0.06840288 -0.02603163 0.0074914144
once -0.069446154 0.10584202 0.103151865 0.12122235 -0.087976284 -0.051542215 -0.061102014 0.07873209 0.048545383 -0.09736046 0.13010174 0.06981262 -0.035157774 0.12280655 0.062093686 0.02519248
sense 0.04507847 -0.099956505 -0.06200582 0.0026984962 -0.012912139 0.0065633645 0.0009897711 -0.03915506 -0.013225745 -0.01708403 0.0053504296 -0.022302713 0.028450463 -0.01494996 0.014723007 -0.01652263
reason 0.09736123 -0.15048203 -0.13063325 -0.09720848 0.1783664 0.16864355 0.13536553 -0.12204513 -0.08451102 0.12530476 -0.08603499 -0.056262605 0.04241802 -0.115475684 -0.08845296 -0.044267874
true 0.011132223 -0.010260203 -0.02040597 -0.0039827307 0.003886164 -0.05641332 -0.041190352 0.05893992 -0.041025132 0.0062679015 0.04790324 0.051387142 -0.0035571097 -0.02681185 0.0024396365 0.04337016
actor -0.037960388 0.05443942 0.089916445 0.018259203 -0.092497885 -0.043031815 -0.054167535 0.020198757 0.025985584 -0.049221598 0.056402374 0.07673751 -0.103043 0.09537523 0.07775778 0.05104763
everything -0.023793254 0.04011391 0.105282314 0.08057278 -0.05880055 -0.1036815 -0.1036882 0.081378415 0.064112656 -0.06863845 0.09162316 0.11711853 -0.030441012 0.051870983 0.08569576 0.072535016
wasn't 0.09239083 -0.035729624 -0.046611007 -0.07565129 0.05853786 0.052593637 0.10365435 -0.101125516 -0.061589405 0.07438426 -0.05213383 -0.07755043 0.110407986 -0.09617415 -0.096077286 0.05398198
shows 0.0063835853 0.008450275 -0.019665902 0.007899882 0.03244303 0.021290919 0.0033316286 -0.013278597 -0.008715887 -0.064511865 0.04803952 0.03867754 -0.02493752 0.0028433574 0.026965385 0.0042815995
dvd -0.03917893 0.04523955 -0.025899524 0.062960856 -0.043209095 -0.08874196 -0.07041436 0.09835744 0.06845807 -0.052202515 0.13059089 0.06364904 -0.052418243 0.09224699 0.026201101 0.07671926
three -0.07691932 -0.0021432852 0.0031603966 0.059617918 -0.04138948 -0.091960326 -0.123778835 0.046177834 0.03243098 -0.0060264403 0.071258195 0.06284598 -0.024125626 0.017681703 0.10037596 -0.10084934
worth -0.10199037 0.09737029 0.081852384 0.064595364 -0.05474977 -0.06378478 -0.07949982 0.13747913 0.04615754 -0.18957402 0.11646693 0.12642394 -0.082136415 0.11473272 0.05410631 0.1316524
year -0.054632854 0.024041932 0.0056640995 0.05031843 -0.024178911 -0.07855614 -0.042716052 0.062168375 0.020385519 -0.03914501 0.013750508 0.050102748 -0.035127085 0.07047088 -0.06987693 0.08035957
job -0.036658414 -0.017317148 -0.037730534 -0.018433532 0.058998585 0.0402844 0.048287913 -0.010000584 0.007940358 -0.03563727 0.029541459 -0.015075992 -0.033939354 0.0029996908 -0.045956913 0.0020046835
main 0.051751148 -0.048998334 0.0033559096 -0.0049839565 0.10362069 0.047486916 0.07611193 -0.045211088 0.0040678727 -0.015089553 -0.01337293 0.022008285 0.07104726 0.016134456 -0.037406776 0.034484595
someone 0.06503477 -0.0145721575 0.0066745956 -0.09520727 0.0072434316 0.06457974 0.08299921 -0.050377525 -0.09500568 0.098973 -0.09345448 -0.090674795 0.048098814 -0.08666643 -0.08827131 -0.03159585
together 0.08577712 -0.07482759 -0.061103046 -0.039023615 0.0021025937 0.0722101 -0.008513535 -0.052330337 -0.0077058235 0.030110497 -0.06454203 -0.08073908 0.020071866 0.00020349932 -0.08085697 0.016775794
watched -0.004360672 -0.039659377 0.017220909 -0.046504542 -0.011509496 0.020901801 -0.02409888 0.06331398 -0.008927539 -0.020390965 0.031486448 0.016871944 -0.019300716 -0.05044218 -0.021048231 -0.02695934
play -0.07785411 0.05890225 0.026642915 0.04070301 -0.036965657 -0.0009664076 -0.03075283 0.05111291 0.049194336 -0.012502588 0.0031422079 0.086086325 -0.08937992 0.08339817 0.03737324 -0.020544522
american -0.119104445 0.06394181 0.14246714 0.14517537 -0.11251279 -0.10043879 -0.101182066 0.13555148 0.09475559 -0.15459327 0.09770858 0.13010934 -0.12393977 0.16235475 0.033366907 0.040265117
plays 0.107409984 -0.07986555 -0.087867126 -0.0472683 0.081639566 0.100972466 0.021549886 -0.019110983 -0.020565888 0.024923781 -0.07868138 -0.099742144 0.07112583 -0.068834886 -0.04504924 -0.08897666
1 0.10231732 -0.103563026 -0.10642118 -0.109378636 0.07765032 0.064606026 0.08993802 -0.038873874 -0.14886318 0.003188254 -0.06651718 -0.040994447 0.09950047 -0.09711176 -0.078108 0.069233336
said 0.052774727 0.016680457 0.03546144 -0.030105978 0.05938398 0.032462474 -0.013805073 -0.035640296 0.026491191 -0.010833205 -0.010282963 0.04031356 0.04726562 0.021684451 -0.03220253 -0.07422666
effects 0.021765435 0.028687483 -0.029016383 0.021252492 0.004410447 0.0050181677 0.016303537 -0.04272443 -0.008716525 0.06960022 -0.00011176379 -0.06406522 0.006049058 -0.03640312 0.042260613 -0.006518248
later -0.00582092 -0.040332366 -0.090319246 -0.058404606 -0.014576974 0.056803286 -0.042079933 0.0398916 0.01600991 0.04831011 0.0020135746 -0.014159567 -0.015828831 -0.061153356 0.020616133 0.033030767
takes 0.0009777745 -0.068529814 -0.0125525 -0.01595025 0.046068806 0.03520789 -0.027758792 0.042047795 0.007982632 0.028659893 0.015140814 0.06566257 -0.05120094 -0.016404988 -0.043702826 0.010328999
instead 0.08472277 -0.046503708 -0.08659791 -0.07167552 0.028221225 0.10648665 0.12142337 -0.10263644 -0.11702109 0.05884597 -0.063722104 -0.13332626 0.059949312 -0.104780436 -0.10541022 -0.06586856
seem 0.026798261 -0.023576476 -0.04381915 -0.0026116988 0.06935702 0.013539154 0.031420138 -0.03884413 -0.058663096 0.025916686 -0.024673693 -0.027232604 0.051946957 0.017132778 -0.050789036 0.06815299
beautiful -0.17346716 0.10250736 0.11122473 0.15504262 -0.2034816 -0.15980342 -0.20501405 0.19706331 0.21811374 -0.1890612 0.13806027 0.1600956 -0.14895841 0.13210802 0.15900518 0.006152044
john 0.005951288 -0.014502791 -0.03443999 0.027801268 0.005894461 -0.0369043 -0.026178233 0.07858805 0.00088157377 -0.033655196 0.07155252 0.058434837 0.010144902 0.047674127 0.026770566 0.017790524
himself -0.0939696 0.097723715 0.034842107 0.0951188 -0.13467248 -0.082798 -0.15335564 0.038564824 0.12981072 -0.13568652 0.08094834 0.101289794 -0.04893692 0.12704016 0.053468104 0.07861953
version -0.101186045 0.01809836 0.08749519 0.106227644 -0.07174617 -0.11522544 -0.08458904 0.08607256 0.09330878 -0.037726246 0.10511623 0.10761361 -0.0037138688 0.06620414 -0.05280076 0.106905885
audience 0.07568256 -0.063581385 -0.011404871 0.017745955 0.097080156 0.020958468 0.054302618 0.015799308 -0.088789836 0.049778637 0.0077879713 0.020375662 0.06537116 0.00035033858 -0.012103907 0.021153638
high 0.01790131 -0.09436676 -0.02317052 -0.07057033 0.022011874 0.03924418 -0.0012988207 0.013481812 -0.046525024 0.04182596 -0.03128608 -0.019198382 -0.005709512 -0.055347394 -0.044162046 -0.0377823
house -0.05759645 0.032563906 0.03125883 0.055757765 0.053294454 -0.009488001 -0.04083243 0.043376576 -0.023428 0.01340259 -0.014740748 0.0061443197 -0.028255502 -0.0017061632 -0.029146174 -0.027048824
night 0.031527705 -0.053264715 -0.0064204438 0.037007492 0.06750166 -0.010491856 0.056468353 -0.0033055958 0.024026657 0.014009391 0.02522976 0.012599373 0.022850212 0.017265845 -0.089026146 0.06920754
during 0.0012444957 -0.05606257 0.013339976 -0.04199301 0.0014297019 0.028720679 0.06861157 -0.0759375 -0.07671293 0.010473738 -0.04932766 -0.033576366 0.06348558 -0.06391165 -0.043243453 0.030253284
everyone -0.04308641 0.022713933 -0.06478977 -0.03825136 -0.016496394 -0.034212027 -0.0063054007 0.009102953 0.039758492 0.018153446 0.00895225 -0.025051018 0.011402194 -0.015787011 0.018636419 0.013116425
left 0.1335841 -0.061457325 0.036817513 -0.11107005 0.031170694 0.13335817 0.083587095 -0.09584003 -0.04524863 0.10808861 -0.10834235 -0.120300405 0.054903667 -0.07224592 -0.105253085 -0.07683633
special -0.080710515 0.011511187 -0.0055986727 0.10789515 -0.07469338 -0.03378973 -0.036491767 0.047742367 0.07692538 -0.09919059 0.014398415 0.042038206 -0.06140546 0.09460848 0.09221225 0.020021921
seeing 0.100629464 -0.089912005 -0.09669929 -0.05213971 0.07141661 0.11861776 0.09730551 -0.007992597 -0.09449327 0.038325988 -0.02276588 -0.0799262 0.04149179 -0.038952578 -0.10722973 -0.04206125
half -0.0032429988 -0.07393099 0.004523693 -0.023858098 0.038988728 -0.023601208 0.03449429 -0.031081842 -0.058333483 -0.008471141 -0.015742257 0.014355675 -0.011772791 -0.00021859565 0.034339946 -0.011174291
excellent -0.017748633 0.028404044 0.040181912 0.043273687 -0.056672234 -0.06844866 -0.0637007 0.073540576 0.056772336 -0.031676646 0.04877011 0.0535856 -0.090738684 0.1057263 0.0329113 0.039838906
wife -0.04731095 0.023531172 0.07060284 0.0075457715 -0.06888684 -0.04004493 0.0030828253 0.063260294 -0.008716381 -0.027314804 0.017836967 0.059813462 -0.034066577 0.0016674158 0.009552862 0.02260305
star -0.084825456 0.11896105 0.066968195 0.1111336 -0.016461756 -0.10230824 -0.050410334 0.048252985 0.049611505 -0.09973538 0.11705272 0.1077548 -0.063908 0.11138312 0.05870415 -0.00807985
shot 0.010503766 0.017834235 -0.033792563 -0.019853007 0.041362993 -0.039645884 -0.047160327 -0.031086477 0.022221128 0.011367486 -0.02909632 -0.0036496138 -0.019255325 0.029243072 -0.029339097 -0.010605623
war 0.032104928 -0.03112711 0.0383235 -0.02644473 -0.045977272 -0.010931788 -0.005686274 0.017699188 0.03175936 -0.050066717 0.03346351 0.04940281 0.03940698 0.013039677 -0.07445875 0.00466759
idea -0.102971226 0.016543059 -0.008297583 0.107015915 -0.036629643 -0.07674499 -0.11752882 0.05910183 0.10405031 -0.03562921 0.063310616 0.076825514 -0.09545357 0.111381605 0.033909578 -0.029441234
nice -0.06443305 0.079054736 0.06973019 0.08397578 -0.017588636 -0.105341986 -0.112617016 0.04453859 0.04225893 -0.062139615 0.058801074 0.035754293 -0.068423465 0.09920263 0.02455889 0.072217666
black 0.038183168 0.049990192 0.039186947 -0.028388558 -0.0005694755 0.00035403372 -0.017941369 -0.007575266 -0.015722517 0.027411738 0.056642517 0.0024881964 0.002699379 -0.0017045906 0.009375728 -0.047974978
less 0.01663169 -0.008852017 0.0223224 0.025569178 0.038203068 -0.01892188 -0.008769524 0.022355244 0.0064556175 -0.020883571 0.051137872 0.021785062 -0.06739283 -0.023564748 -0.04093638 -0.007838793
mind -0.12092221 0.06709872 0.15306419 0.071023695 -0.12277812 -0.057301383 -0.07050463 0.04432957 0.13387679 -0.09096291 0.115835354 0.073764704 -0.08860078 0.1074789 0.063474454 -0.029394537
simply 0.039423984 -0.10880722 -0.12448853 -0.078632586 0.10401144 0.092067964 0.020311913 -0.0793685 -0.027442409 0.04101535 -0.020120239 -0.09897875 0.049046908 -0.08820429 -0.061761122 0.0012139996
read 0.08171902 -0.15268897 -0.11909138 -0.08647359 0.059333555 0.08331324 0.0786128 -0.05155457 -0.12153195 0.072609626 -0.05331407 -0.13004033 0.09007642 -0.15111318 -0.033596877 -0.068173595
second -0.020324156 0.004983909 -0.024763843 0.045590848 0.0359414 -0.048532497 0.042268775 -0.018788083 -0.013945218 -0.005020722 0.0019595008 0.017551897 -0.0124370735 0.016079023 -0.052609947 0.021268744
else -0.0033675304 0.045473896 -0.014633895 0.054639187 0.033274073 0.020119961 0.03866054 -0.022934293 -0.031799167 0.01546623 0.035504606 0.04449928 -0.04810041 0.0059223613 -0.04063227 0.038015477
you're 0.128059 -0.06863197 -0.12982114 -0.12180449 0.123678684 0.11744021 0.10299116 -0.075919844 -0.096159056 0.12015088 -0.051925648 -0.10086356 0.05108337 -0.11597682 -0.07135094 -0.073457114
father 0.030246038 0.014376173 0.008884372 0.049306255 -0.05313803 -0.004454229 -0.009901552 -0.007428897 0.02162875 0.01644524 0.03161295 0.004531263 -0.02559636 0.025372 0.023772748 0.030746898
fan -0.03802187 0.003969241 0.05902824 0.11462197 -0.032227185 -0.10954285 -0.054525357 0.046461944 0.07460401 -0.020860666 0.110048264 0.055122204 -0.063850276 0.10433572 0.03156368 -0.013439569
poor -0.0021297368 0.004585954 0.03774701 -0.06286403 0.005980521 0.008874689 -0.0019463808 -0.04289689 -0.08066756 0.06507984 0.0030050413 -0.0036111372 0.023947483 -0.053126816 -0.015325131 0.0036829447
help -0.00074759463 0.046021033 0.05811352 -0.0035562844 -0.038973186 -0.03332354 -0.01541183 -0.0073462697 0.036670797 -0.019992435 0.03265532 0.05683097 -0.025179697 0.029186664 -0.041757468 0.013478671
completely 0.008880953 -0.040867053 0.03680584 -0.051785596 0.0439742 -0.0030458765 0.06149622 -0.03250514 -0.00558497 -0.022145402 -0.0036147381 0.013331386 -0.0128000155 0.0031263763 -0.019882236 -0.056582656
death -0.016442163 0.037688326 0.027576968 0.037693202 -0.018108593 -0.016819747 -0.022072226 -0.012244251 0.044714898 -0.0896986 0.027491959 0.09148 -0.03921725 0.049368314 -0.0030468078 0.06775671
3 0.1934141 -0.24653438 -0.18994483 -0.233888 0.24268182 0.17085171 0.1597311 -0.10423204 -0.14630291 0.18694445 -0.19268961 -0.1819665 0.11589409 -0.21902443 -0.14006911 -0.019907434
used 0.13098085 -0.089774676 -0.05532246 -0.0636387 0.1201009 0.097803175 0.05869088 -0.11860082 -0.053392462 0.13068716 -0.030254183 -0.10431443 0.12366575 -0.091806404 -0.04190934 -0.081841834
home -0.020298354 0.077918775 0.06996367 0.09414077 -0.028892254 -0.08724286 -0.09860431 0.045209166 0.057750616 -0.092999205 0.08826534 0.07539064 0.009826488 0.09055027 -0.057668697 -0.0014095496
either 0.108802155 -0.13200557 -0.08100464 -0.047914565 0.07384817 0.08968253 0.08858062 -0.04343313 -0.015184457 0.1126282 -0.05294799 -0.10634348 0.061548375 -0.053303108 -0.0707868 -0.07917199
short -0.017994784 0.028287672 0.05413488 -0.011831987 -0.07474306 -0.07510424 -0.016199749 0.030100133 -0.01696441 -0.06181291 0.077776335 -0.021948773 0.013872203 0.046942927 0.069783114 -0.04030722
line 0.023341822 -0.047355406 0.054431774 -0.025010189 -0.05293777 -0.032004673 -0.05549879 0.05102339 0.04709162 0.01038776 -0.025391983 -0.014966123 -0.02400666 0.008558337 0.06841995 -0.047933187
given -0.051868126 -0.0068677557 0.061367124 0.08208626 -0.05943872 -0.11444697 -0.07165581 0.024518419 0.047722083 -0.05916467 0.10663696 0.1265835 -0.048991952 0.025827557 0.11061712 0.031739354
men 0.070422694 -0.03074395 -0.050816003 -0.07348102 0.067722484 0.041941892 0.0041782525 -0.027459746 -0.028100532 0.05154051 -0.030602211 0.019311247 -0.0017855293 -0.07393766 -0.07318952 0.04391851
top -0.11457271 0.11695599 0.113255754 0.159422 -0.078635715 -0.15137392 -0.1615843 0.16611646 0.16725878 -0.09266332 0.103376806 0.13565178 -0.11900498 0.06275161 0.10374418 0.07349783
dead 0.081459545 -0.12813322 -0.07049328 -0.16583778 0.09446579 0.17352042 0.101970665 -0.12608789 -0.11027015 0.07661506 -0.16449484 -0.106052436 0.10060078 -0.111723855 -0.05514928 -0.12455442
budget 0.07511907 -0.0151697 -0.027563022 -0.046551406 0.09073761 0.07335687 0.08328624 -0.0939626 -0.025349256 0.07910281 -0.0730927 -0.09213022 0.109147444 -0.047756393 -0.0724652 -0.0026204272
try 0.028901834 -0.02914757 0.06699785 -0.034424935 0.047426645 0.0051042885 -0.0013906909 -0.0033831664 -0.038915765 0.056090504 -0.042279135 -0.014323156 0.02409094 0.010776722 0.0287579 -0.026392544
performances -0.024636047 0.0036719532 -0.01778883 -0.01262372 -0.067509845 -0.07656176 -0.068871245 0.050043143 0.03146065 -0.024434162 -0.010826541 0.06859512 -0.051113028 -0.0019931712 0.05122385 -0.030798703
wrong 0.005620298 0.013785436 0.024682961 0.032681063 -0.016393915 -0.006572682 0.012809915 0.034222063 0.024052132 0.0057480484 0.030814793 -0.014000472 -0.03685977 0.019995216 -0.010638184 -0.032141384
classic -0.08277485 -0.035745826 0.05706231 0.06996309 -0.03067586 -0.030010682 -0.09238464 0.04557853 0.001110084 -0.0077145677 0.09726521 0.13406919 -0.0025785596 0.07701097 -0.15513805 0.07171428
boring 0.11839724 -0.016411288 -0.048180383 -0.09220096 0.06442267 0.11143343 0.09067899 -0.1429923 -0.06105418 0.10737681 -0.07606593 -0.13773124 0.025757158 -0.11573266 0.08542165 -0.08596495
enjoy 0.021204885 -0.05329632 0.010874911 0.030922249 0.0006591948 -0.028357478 -0.01932957 0.036105435 -0.01093819 0.021986803 0.019190084 -0.031240903 -0.07054595 0.02911641 0.0046235886 -0.03630009
need -0.010324648 -0.050725874 -0.0013729678 -0.050256617 -0.022202315 -0.00043195684 -0.031974263 -0.014784771 0.03919268 0.054276127 -0.052676454 0.011999316 0.04518345 -0.027643409 0.02551292 0.054119565
rest 0.07434587 -0.05466505 -0.01791085 -0.06436946 0.0564587 0.03708186 0.0864989 -0.040421534 -0.039901078 0.018486759 -0.008992294 -0.09397073 0.04190887 -0.055462744 -0.0048534675 -0.064797275
use -0.08856907 0.11418607 0.05318872 0.11616935 -0.08518262 -0.08073062 -0.052173603 0.05799587 0.0898862 -0.0417285 0.044521514 0.04543303 -0.096770935 0.09759485 0.0054389336 0.035829455
kids -0.03844557 0.11871462 0.08743566 0.087877154 -0.023550166 -0.05364882 -0.011231373 -0.0007079323 -0.010421801 -0.08501144 0.012720236 0.019708557 -0.10099983 0.012936085 0.015389944 -0.033622824
hollywood 0.07098052 -0.025354773 -0.01701152 -0.043083876 -0.0073882905 -0.0206288 0.00206689 0.02208153 0.012720848 0.0030700418 -0.011756711 -0.0509561 0.022980493 0.005415945 -0.035409804 -0.04703542
low -0.018467192 0.06085123 0.16679241 0.039935205 -0.04986086 -0.0035593037 0.024427405 -0.058819156 -0.03778787 -0.01140399 0.010295257 -0.0013715415 0.020228017 0.0032315843 0.03937761 -0.13680872
production -0.03243617 0.04039809 0.014414647 0.0048689973 -0.009348766 -0.006424255 -0.06792377 0.020104373 -0.006190301 -0.0030249038 0.0064797252 0.0033123023 0.005395632 0.015869707 -0.0069763907 -0.028874736
until -0.04639345 0.075810276 0.09214273 0.07258949 -0.0136934025 0.0147503475 -0.04296598 -0.048479006 -0.02297626 -0.058776665 0.06692524 0.026540387 -0.00093674444 0.073459454 -0.028241206 -0.030123442
along 0.033520713 -0.04504842 -0.08352693 0.014615234 0.050355036 -0.019790156 -0.03882933 -0.009370927 0.0127545195 0.007522263 0.0451325 0.040958304 0.02050273 -0.038435776 -0.06740489 0.023206994
full 0.062095333 -0.063690774 -0.009073993 -0.07567767 0.049203373 0.08808323 -0.019027779 -0.07386081 -0.015809407 0.082959436 -0.08697603 -0.0162374 0.02591239 -0.06719541 -0.05620232 -0.054092243
friends 0.06460783 -0.107834265 -0.14087996 -0.1226294 0.07503693 0.06710487 0.12605666 -0.12412056 -0.11859294 0.09505486 -0.10611407 -0.08360493 -0.055954292 -0.11074949 0.092969626 -0.1334912
camera -0.05328056 -0.033264767 0.021866024 -0.0009836872 0.04089709 -0.05174596 0.02883385 -0.022256695 0.027659537 -0.030916 0.04025322 -0.002642875 -0.038358893 0.059985258 -0.013570286 -0.021144386
truly 0.003325197 -0.0748525 -0.16123134 -0.067612015 0.0056497464 0.0727378 -0.02423935 0.007948862 -0.053835172 -0.018056892 -0.016412685 -0.053501867 -0.007007791 -0.02133416 0.045118976 -0.028676335
women 0.07024576 -0.08649296 -0.16198646 -0.058261473 0.12816758 0.09226655 0.09609175 -0.052862085 -0.07249997 0.12815319 -0.089148864 -0.038911235 0.07303823 -0.0833946 -0.05877568 -0.01981737
awful 0.040829714 -0.059789605 -0.0141031835 -0.11690913 0.03282399 0.0938808 0.13059725 -0.11017688 -0.12663823 0.10030963 -0.050105885 -0.048177566 0.124110475 -0.074607216 -0.07786557 0.022784814
video 0.08610539 -0.070760906 -0.04801627 -0.016952794 0.09219644 0.08865018 -0.019419262 -0.05082662 -0.013628191 -0.009050654 -0.0574575 -0.017092219 0.10914395 -0.030578077 -0.10695731 0.05650768
next -0.08917271 0.09489758 0.09190296 0.01381669 -0.022401925 -0.029495906 -0.057127867 0.0048368154 0.06641157 -0.056598306 0.051165503 0.0726258 -0.0908577 0.09587208 0.08768794 -0.003811483
tell 0.07573342 -0.09516739 -0.038241975 -0.09787564 0.07831975 0.04382886 0.019610848 -0.056750793 -0.08277309 0.018264333 -0.043975424 -0.028258307 0.08992473 -0.08803465 -0.082976334 0.008779915
remember 0.07262289 0.0070362478 0.047404677 -0.026846675 0.043229662 0.030818222 0.013260127 -0.02687488 -0.015049423 0.05378969 -0.05065651 -0.045680784 0.0290167 -0.023288364 0.051595397 -0.07466535
couple -0.06633643 0.08548721 0.041286886 0.028187972 -0.075028524 -0.046532743 -0.072133936 0.07415847 0.0060678064 -0.061545417 0.036180317 0.063851096 -0.06732245 0.010241103 0.07861307 0.029149277
stupid 0.09394023 -0.114658095 -0.07200075 -0.030313266 0.111618996 0.10092749 0.070334986 -0.07675536 -0.09520587 0.036982317 -0.019677417 -0.072127506 0.008815785 -0.09123632 -0.14958607 0.034004964
start 0.10798033 -0.11688153 -0.0110411905 -0.15671445 0.07368566 0.108953044 0.124915995 -0.096848115 -0.08839767 0.12002007 -0.088556886 -0.1332485 0.053620894 -0.14366126 -0.029712435 -0.095825255
stars 0.18477942 -0.16009851 -0.20746422 -0.094740406 0.112730846 0.0975472 0.07206118 -0.052660774 -0.13620529 0.11816298 -0.14633314 -0.13376775 0.15800071 -0.10191939 -0.0690999 0.005671592
perhaps -0.06194012 -0.016111787 -0.036821168 -0.010983491 0.0051827915 0.021606883 -0.057435617 0.01016461 0.00987101 -0.0026257115 0.04304441 -0.010657932 -0.029451862 0.04336347 0.013529505 0.072588064
sex -0.052177448 0.037442137 0.0104363365 0.08121521 0.034888245 -0.049239483 -0.04793325 0.047549527 -0.023528604 -0.050306983 0.008300856 0.06612083 -0.008515214 0.0071200626 0.03031688 0.045245957
mean -0.015681887 -0.017688258 -0.0126125105 -0.08087045 0.0012822784 0.08506388 0.017107029 -0.039099924 -0.07716674 0.019709585 -0.030266197 -0.009658947 0.061339572 -0.042625915 0.021536138 -0.028866975
came -0.033851217 0.025393784 0.03480672 0.06866166 -0.024770416 -0.06042939 -0.0022644177 0.07128744 0.0028443725 0.016462116 -0.012477236 0.05939478 -0.03826953 0.048092473 0.011693284 -0.010543223
recommend 0.010768006 -0.06241458 -0.08833252 -0.03602341 0.08293566 -0.012354759 0.017649751 0.025125325 0.0063048457 0.008926855 -0.053658076 -0.0027710204 -0.012935936 -0.025577188 -0.056366894 0.028917978
let -0.01981051 0.026397537 0.048521537 -0.013892278 0.020753147 0.017160516 0.030975668 0.032037336 -0.02010401 -0.04910057 -0.025954843 -0.04049462 0.047220096 -0.0006468707 -0.0765458 0.016549211
moments 0.07126559 -0.042852975 -0.03930542 0.01604652 0.011973428 -0.011511618 0.002887005 -0.030059526 -0.058738053 0.038583953 -0.063280195 -0.030286256 0.06963544 -0.03551255 -0.10232543 0.006760115
wonderful -0.09748266 0.047410287 0.057537105 0.08862881 -0.10461039 -0.12998977 -0.11835244 0.12689947 0.10692378 -0.103921525 0.15909195 0.11180703 -0.050360136 0.07691335 -0.0077465414 0.06633218
episode 0.03516661 -0.13225254 -0.089864574 -0.015147967 0.031042457 0.09424354 0.023562558 -0.054684415 -0.008752562 0.049819577 -0.057274077 -0.069183156 0.011178898 -0.04121539 0.033809256 -0.12271057
understand 0.05412683 0.06975254 -0.004899604 0.02003229 0.008514162 0.02006788 -0.003926969 0.012242938 -0.006458274 -0.034510862 0.024120001 -0.024417927 -0.031497233 0.0016493154 -0.048626654 0.06365278
small 0.03866049 0.028506523 0.013969816 -0.011080394 0.050736748 0.013346848 -0.019645195 0.02896034 -0.05000002 -0.011028639 0.0376059 0.022674656 -0.033713378 -0.05124179 0.026826976 0.021440735
face -0.063941374 0.019097371 -0.0037592463 0.080293596 -0.061497685 -0.08246549 -0.025772484 0.0005794555 0.0030488055 -0.07236046 0.047127094 0.05137587 0.018979829 0.045164008 -0.09625905 0.06582243
terrible 0.08729821 -0.07448426 -0.119700365 -0.067538366 0.08878104 0.0919959 0.09689061 -0.023414355 -0.1414354 0.06356027 -0.11641618 -0.07364692 0.09635511 -0.10273731 -0.1054863 -0.0021194594
playing -0.024327986 0.0147349555 0.050547685 0.07913092 -0.048660606 -0.06431185 -0.040913522 0.058815647 0.05775089 -0.05723991 0.0015976584 0.05521441 -0.0066966033 0.06666434 0.07129602 -9.21252e-05
school 0.07554302 -0.06256977 -0.055558775 -0.0030946275 0.13509624 0.015359413 0.056083214 -0.020910772 -0.098256245 0.058705106 -0.0730597 -0.04477354 0.06731346 -0.01603275 -0.086112246 0.00900627
getting -0.114144735 0.11158897 0.12190593 0.079210505 -0.04197551 -0.11754645 -0.11927984 0.05672358 0.086294204 -0.079311304 0.10579299 0.059890214 -0.10973006 0.084129825 0.104432724 0.017656034
written 0.12763813 -0.1505139 -0.050874025 -0.0982647 0.064911686 0.12271178 0.13182554 -0.1425749 -0.07749475 0.056983415 -0.109656446 -0.15266743 0.11735387 -0.076770835 -0.08599901 -0.10264292
doing 0.044574577 -0.01627389 -0.06111371 -0.083633855 0.066664696 0.06369009 0.04424079 -0.0016530128 -0.02160175 -0.0028189628 -0.03874451 0.017624613 0.012321696 -0.017427398 0.010545637 0.09236661
often -0.08667206 0.036551096 0.001337491 0.06538748 -0.064043395 -0.036242973 -0.080288805 0.097543165 0.092942186 -0.080914125 0.033981383 0.07420294 -0.04019868 0.04732363 0.030267239 0.054815415
keep 0.0819109 -0.086830154 -0.12699762 -0.09281982 0.10346287 0.027146757 0.026425006 -0.0674104 -0.057552196 0.07883365 -0.07143569 -0.027841292 0.0022523755 -0.022702131 -0.053534094 -0.021732314
early -0.08327518 0.065296605 0.07782694 0.11678394 -0.03745251 -0.124168135 -0.03913036 0.042078305 0.049294118 -0.100220315 0.072053306 0.05825622 -0.12469242 0.035510026 0.030696675 0.07882497
name 0.03660916 -0.02416614 0.036206763 -0.09161835 0.13332929 0.12818983 0.02250654 -0.104419656 -0.10569858 -0.0028929687 -0.024406122 -0.015488917 0.096106015 -0.095064715 -0.010284583 -0.00031470438
perfect -0.09335742 0.03542532 0.07823281 0.07542784 -0.049705658 -0.05983512 -0.07062676 0.09011714 0.03336405 -0.06605375 0.06812771 0.05338853 -0.10440728 0.05089746 0.07405772 0.11272047
style -0.0073461854 0.074644215 0.029940011 0.014610552 0.012473307 -0.0140829915 -0.028912378 0.005169581 0.008580002 -0.050017342 -0.008368325 0.006811756 0.006383639 0.048347816 0.007237993 0.009658504
human -0.0074979663 -0.00040634038 -0.01068228 0.07001802 -0.023396026 -0.0784747 -0.096361585 0.0865068 0.039385587 -0.015678326 0.100929946 0.06088324 -0.06700208 0.063698456 -0.06762976 0.027727788
definitely -0.039734926 0.103533275 0.0857263 0.11504703 -0.045235656 -0.094797745 -0.13103409 0.08114852 0.076241136 -0.07431044 0.07225157 0.083099924 -0.07342643 0.059610095 0.08307228 0.025230885
gives -0.054304503 0.08128901 0.09762847 0.089269295 -0.08197073 -0.09684548 -0.0422841 0.06833797 0.12379751 -0.11417892 0.10219491 0.034822755 -0.118558824 0.113650896 0.11027669 -0.036175564
others 0.058171194 -0.102654584 -0.17598456 -0.028803594 0.1058739 0.085979536 0.04323763 -0.02243787 -0.029538086 0.060256254 -0.05753302 -0.068926774 0.08345277 -0.06645412 -0.10716585 0.019375099
itself 0.12144542 -0.18602383 -0.16529804 -0.1973476 0.13013011 0.17576873 0.20639113 -0.16751553 -0.10465825 0.14721774 -0.17899954 -0.17777263 0.09119079 -0.21442114 0.021240994 -0.23227033
lines 0.039125722 -0.058621928 -0.0056042047 -0.059310958 0.05221877 0.04358313 -0.0041039013 0.008468828 -0.07632039 0.025415296 0.00069620326 -0.00037835774 -0.007592022 -0.06524576 -0.055217117 -0.04653536
live 0.014450992 0.023273323 -0.02581617 0.06610414 -0.023975898 -0.07874191 -0.056280334 0.09220737 0.008903505 0.016804537 0.024964485 0.041372173 -0.024321934 0.058075894 0.021546979 0.14448737
become -0.12437965 0.021803755 0.124806255 0.02788584 -0.11314796 -0.09363603 -0.060743906 0.046478692 0.09381156 -0.0047542136 0.07411741 0.100063 -0.03448455 0.05966024 0.072608255 -0.1176868
dialogue -0.02657318 0.024515923 0.04249582 -0.00067906635 0.024911266 -0.00776259 -0.018530356 0.038916066 -0.008668616 -0.06881382 0.03638577 0.0790272 -0.0138162365 0.028329644 0.01058206 0.036717925
person 0.01465632 0.021913292 7.301759e-05 0.019713173 -0.033551265 -0.020759165 -0.0013705547 -0.049791206 -0.05133015 0.04838696 -0.016280938 0.02358782 0.041260246 0.021565747 -0.011760004 0.0023693545
lost -0.03506441 0.04730461 0.048526216 0.06698498 -0.06296428 0.02260999 -0.07582564 -0.017711472 0.01890944 0.0011532729 0.03166863 0.040701676 -0.024265962 0.058778808 0.00931742 -0.019486824
finally -0.03450294 0.023600372 -0.03774513 0.021771189 0.012856889 0.03672499 0.0031719955 -0.043190256 -0.023782542 0.013317791 0.00897404 0.025212567 0.04383573 -0.018632257 -0.036904357 0.0043843472
piece 0.17636517 -0.2540213 -0.23678736 -0.16027854 0.24130197 0.17219895 0.2003678 -0.20042391 -0.16866848 0.21578579 -0.19465812 -0.13467818 0.14504053 -0.16666812 -0.08812517 -0.028424054
head 0.08322548 -0.12709276 -0.046960615 -0.10123182 0.016875083 0.06225296 0.10830268 -0.071722284 -0.07909822 0.038309556 -0.054663144 -0.11477548 0.11155648 -0.10094763 -0.0663454 -0.012826819
case 0.061827958 -0.08570081 -0.16590333 -0.12458183 0.04150036 0.110405184 0.122691736 -0.059566874 -0.078051485 0.09126279 -0.14033411 -0.07246254 0.07546801 -0.10980993 0.04583159 -0.03374741
felt -0.037743036 -0.0037907085 0.010036614 0.06476937 -0.009956893 -0.004533219 0.01977543 0.0057604588 0.029986246 -0.0697647 0.0305856 -0.0013592382 0.029453829 0.027730998 -0.019266397 0.0551887
yes -0.07958031 0.08183799 0.049414128 0.024569737 -0.027732017 -0.072579466 -0.07833192 0.030682322 0.066376016 -0.08190534 0.07718445 0.07306874 -0.09070994 0.02807558 0.07136508 0.030055102
liked -0.098533876 0.048881613 0.075752676 0.12843518 -0.023981098 -0.08646677 -0.062002394 0.049726024 0.104240686 -0.088725135 0.06567422 0.04196971 -0.08961545 0.12758681 0.009176324 0.063029796
supposed 0.060081158 0.014170693 0.026831204 -0.031191422 0.0014975733 0.07423316 0.07855807 -0.0034566643 -0.0025808811 0.006566448 -0.081823125 -0.035923954 0.06453018 -0.03130945 -0.051353987 -0.010043002
title 0.15386198 -0.13107 -0.017263688 -0.16183327 0.14356951 0.079693265 0.12829737 -0.080454424 -0.11739379 0.15005156 -0.10932627 -0.10380834 0.08571582 -0.1405156 -0.14493418 -0.072447084
couldn't 0.13123065 -0.10626449 -0.10814187 -0.07756037 0.109237164 0.1534673 0.11777683 -0.12499862 -0.10279634 0.12302841 -0.08851876 -0.08930678 0.079265825 -0.102898225 -0.120606385 0.012825265
absolutely -0.020785198 0.016215796 -0.11295698 -0.012949432 0.089298874 -0.011620415 -0.04012577 0.03126185 0.006712355 -0.01047166 0.06514378 0.03280873 0.011118945 -0.01371544 -0.086754076 0.14825876
white -0.016614085 0.08522797 0.13751887 0.09372022 -0.051759835 -0.07443937 -0.06886522 0.09277296 0.0137076685 -0.11713329 0.026055444 0.050522603 -0.08812247 0.07242416 0.09896787 0.00088737044
against -0.06299486 0.084359966 0.077049404 0.09949911 -0.08704205 -0.093584456 -0.12442251 0.05154447 0.05188605 -0.06858087 0.11478378 0.08434149 -0.05831018 0.07466448 0.11479474 0.018404298
boy -0.07631405 0.07293089 0.026201703 0.010834938 -0.009307019 -0.047932163 -0.072055645 0.019160317 0.03798906 -0.007752729 0.09001462 0.058652777 -0.028604554 0.07651406 0.027951164 0.012334604
picture 0.01494775 0.053794716 0.018519485 0.03850256 -0.0022109807 -0.020068265 -0.026790706 0.046275873 0.045437288 -0.01788898 0.075682975 0.05934864 -0.032021318 0.057529658 0.03602399 0.028924346
sort -0.040873867 0.014162733 -0.009016629 0.03147367 -0.04714138 -0.063818 -0.043283693 -0.026309526 0.0547438 -0.04758864 0.031345405 0.03854929 -0.038865298 0.041096993 0.009494643 -0.015740158
worse -0.005259786 0.025659211 0.08381584 -0.036903083 -0.003599532 -0.045276668 -0.02000805 -0.028757187 0.03293374 -0.008953539 0.042944856 -0.028602038 0.023832532 0.0222805 -0.033961885 0.006640581
certainly -0.024654493 0.0913831 0.082148746 0.0826324 0.012488678 -0.09131051 -0.060594525 -0.0064560985 0.034287184 -0.009471173 0.08049873 0.05175809 -0.04652194 0.04310223 0.023460427 0.036545396
went 0.14363715 -0.15084943 -0.07805182 -0.07386102 0.094838366 0.11536439 0.10193865 -0.034034394 -0.1271568 0.13071218 -0.0752322 -0.035678614 0.11872109 -0.13812146 -0.03126918 0.028793514
entire 0.08415614 -0.064481944 -0.02914744 -0.042505186 0.046322793 0.123141475 0.1097325 -0.12572534 -0.051082686 0.08329784 -0.06492292 -0.09126134 0.030070467 -0.10072137 -0.058305748 0.023640094
waste 0.12364381 -0.11435526 -0.053066693 -0.09279741 0.14882606 0.14908424 0.15371726 -0.15019496 -0.1739689 0.12785974 -0.11751743 -0.15397961 0.16518892 -0.08992383 -0.07689691 -0.024974829
cinema 0.03738965 -0.0528522 -0.09643558 -0.008863822 0.0072074006 0.0290294 0.011924755 0.00049913954 -0.0012033439 -0.020303128 0.005102448 -0.00901072 -0.03694187 -0.02194964 0.004656531 0.0030005658
problem -0.023249226 0.015509284 0.04568351 -0.021847244 -0.041656513 -0.048986036 -0.077759534 0.019023083 0.052441575 0.0010841286 0.0788682 0.034137048 -0.049806606 0.06375793 0.00017256835 0.008786356
hope -0.04996345 -0.002292119 0.062271923 0.0043602004 0.013629572 -0.034462206 -0.018201802 -0.006512455 -0.0011708147 -0.076463155 0.06887023 -0.01057365 -0.061693568 0.04115745 0.048940577 0.023303721
entertaining 0.0016050467 -0.033406477 0.024682833 0.03819746 0.04471739 -0.025605056 0.018125802 0.03613669 -0.0019802412 0.010856034 0.0021891054 0.03146256 0.02683808 0.012703063 0.014525241 -0.050266795
she's -0.014460668 0.020595811 0.0042209416 -0.057380144 -0.042060945 0.06024117 0.06237354 -0.04847431 -0.03422869 0.050751727 0.0036747972 -0.018874882 -0.008270408 -0.0038408253 0.005364632 -0.023214111
mr -0.003181896 -0.037899572 -0.0014430787 -0.017557966 0.0365635 0.010163908 -0.042833425 -0.0470739 -0.04488682 0.017155556 0.02172754 0.016423687 -0.022255806 -8.752156e-05 -0.070304625 0.027211655
overall 0.08935252 -0.05261743 -0.053832363 -0.07077331 0.08372441 -0.0014850638 -0.006837879 -0.004673696 -0.041201945 -0.039060373 0.007068251 0.017896753 -0.011272896 -0.071554266 -0.0190255 0.041146323
evil 0.033201665 -0.080966845 0.050915666 -0.04611349 0.005318241 0.066865645 -0.017652914 -0.024285072 -0.028972005 -0.0071104504 0.016556026 -0.029418493 0.07838069 -0.061360642 0.023276733 -0.14141992
called -0.024847882 -0.041963913 -0.030306645 0.045640167 -0.03963664 -0.03908041 -0.027763626 0.00523346 -0.038027063 0.042477105 -0.04238457 -0.025987819 0.00900866 -0.048261832 0.0041619083 -0.05843154
loved 0.015436367 0.038826864 -0.01161758 0.017724622 0.05042717 -0.028318454 0.015804479 0.042117033 -0.029398449 -0.01738638 -0.021212991 -0.028896337 -0.0314933 -0.05039245 -0.020216495 0.0067144767
based 0.04683111 -0.012199377 -0.06734189 -0.034862705 -0.04075997 0.012438741 0.023000823 0.0023767278 -0.028570414 -0.018629208 0.02636831 -0.015883438 0.0144092655 -0.011263363 -0.041833743 0.039083704
oh 0.11566041 -0.03555556 0.12894087 -0.13070856 0.0670214 0.06737999 0.11502243 -0.112760104 -0.08694998 0.09459651 -0.118086904 -0.12611087 0.06900327 -0.0919801 0.0017026111 -0.14600204
several 0.029285504 -0.00039359013 0.0018300745 0.0074275862 0.03845061 -0.0010993637 0.028233012 0.029212644 -0.04947344 0.012627203 0.007369179 -0.037090044 -0.012231405 -0.050232537 -0.052727375 -0.04830224
fans 0.018025743 0.01261772 -0.09365453 -0.035703182 -0.012968428 -0.011600928 -0.00085317786 0.046669137 -0.06581102 -0.029942822 0.027518263 0.016978482 -0.01359425 -0.020258464 0.050455634 0.010394637
mother 0.0026132886 0.05725484 -0.014490243 -0.0017358129 0.013753627 -0.047463343 -0.0025637902 0.0016039202 0.055051044 -0.054833304 -0.0034125482 -0.022513308 0.014548523 -0.029396828 -0.05878816 -0.03642294
drama 0.0545919 -0.050691046 -0.019098712 -0.04563867 -0.025331218 0.002840716 -0.023526669 -0.014621096 -0.013107378 -0.02062151 0.037775904 0.036437888 0.003433871 -0.013565751 0.0034960671 0.003066674
beginning 0.029964598 -0.06468537 0.05096873 -0.0055964235 -0.0075116744 0.032538783 0.00095348485 -0.00024660904 -0.008238088 0.041544016 -0.015131454 -0.062565856 -0.010120588 -0.08404276 0.01856865 -0.042132486
killer 0.054612096 -0.019725887 0.032181762 -0.029961918 0.0141253 0.03837557 0.07492693 -0.09506002 -0.097024724 0.012592368 -0.049885333 -0.05099082 0.06319832 -0.00934482 -0.020872135 -0.030446315
lives 0.0663749 -0.05332235 -0.08292833 -0.078111336 0.081760615 0.08029395 0.074303135 -0.0075664795 -0.075270906 0.08134242 -0.037710987 -0.021940043 0.034824505 -0.05928669 -0.07528474 0.014455479
5 -0.014695498 0.026840804 -0.047526464 0.017269595 0.016618276 -0.032388 -0.095095344 0.053248454 -0.021929696 -0.08792291 0.020630024 0.12003196 -0.008679744 0.06851603 -0.036550343 0.06708008
direction 0.087900214 -0.040821105 -0.032066327 -0.062704235 0.061837792 0.0821516 0.015527112 -0.081085265 -0.048597414 0.05941133 0.005611862 -0.00837732 0.06076693 -0.08571217 -0.00036950814 0.057946943
care 0.13991795 -0.10631161 0.018056612 -0.0656077 0.038055934 0.13322417 0.07746546 -0.05385325 -0.068199195 0.08345891 -0.114829876 -0.079372704 0.07733573 -0.07982635 -0.07186207 -0.07309105
already 0.027590102 0.0026163594 0.040641353 -0.04709561 0.058635175 -0.022836149 0.034157522 -0.04428149 -0.027314013 -0.050374325 -0.049674235 0.010544793 0.018761639 -0.016680166 0.01163064 -0.030344775
becomes -0.043161176 0.08590083 0.06129169 0.022805935 -0.09667589 -0.028988097 -0.12004854 0.094443135 0.08699284 -0.07910117 0.037300423 0.11382109 -0.072363645 0.09647635 0.03331642 -0.010169126
laugh 0.024605358 -0.035191387 0.0028243738 -0.05550209 0.07661701 0.11534502 0.04683657 -0.0377846 -0.0882423 0.09394346 -0.06112037 -0.03156263 0.07300294 -0.023027843 -0.06669011 -0.040100135
example -0.06619406 0.060255162 0.050211165 0.089544274 -0.07973646 -0.08171615 -0.116578855 0.04424142 0.054615717 -0.07263799 0.06336672 0.09623226 -0.038293354 0.06940612 -0.008980388 -0.0057955664
friend -0.09114919 0.14734593 0.036689285 0.12857959 -0.098565385 -0.16924667 -0.1251692 0.14501157 0.15769893 -0.09487564 0.12360901 0.07315506 -0.10335287 0.16552727 0.050958008 0.09168683
dark 0.11297 -0.10271968 -0.07078037 -0.11580687 0.06422561 0.12042288 0.08680448 -0.05209292 -0.11316875 0.11122316 -0.10893275 -0.073000826 0.07975892 -0.14528887 -0.103382334 0.023619689
despite 0.10634548 -0.12984926 -0.06879711 -0.008066479 0.09489372 0.01183238 0.017178455 -0.027583202 -0.0410889 0.0821531 -0.013418599 -0.08398015 0.09220736 -0.06329779 -0.0949296 -0.0020368234
under -0.12602518 0.041806266 0.09794515 0.033225633 -0.037245862 -0.1204253 -0.0928624 0.08563234 0.02618593 -0.11584159 0.116630934 0.10033076 -0.06811879 0.031550463 0.0369536 0.06933086
seemed -0.040475916 0.007296435 -0.022269357 0.0026428883 0.03206316 -0.008267909 -0.008284997 -0.0507906 -0.008982428 0.032106075 -0.012109183 0.03691581 -0.03640124 0.009963703 0.005583276 -0.06269642
throughout -0.024640141 -0.035705928 -0.05260365 -0.020142136 -0.030956442 -0.02331017 0.04702318 0.012645739 0.015480413 0.004067483 0.015253266 -0.05725276 0.011902313 0.039131362 -0.057549495 0.0037915152
4 0.19450104 -0.17436671 -0.27678123 -0.1723713 0.2581213 0.20610946 0.14754015 -0.06514865 -0.14120659 0.11471907 -0.17655723 -0.18024725 0.16419491 -0.20624982 -0.15340093 0.06846148
turn 0.025329597 -0.05754529 0.060323916 -0.024167173 0.007856582 0.061863743 0.04945292 -0.046522833 -0.07859182 -0.01950643 -0.07497734 -0.003397705 0.01514252 -0.032119505 -0.02932559 -0.059003934
unfortunately 0.063293055 -0.06057909 -0.029373001 -0.041352313 0.011977838 0.0060691237 -0.018001968 -0.0056818994 0.01156081 0.03830588 0.015228096 -0.020644048 0.0033717095 -0.02279933 0.025024915 -0.017120754
wanted 0.029750062 -0.05407091 -0.03532312 -0.06515071 0.080885075 0.085181676 0.031551413 0.0038850068 -0.041920524 0.102146946 -0.04034688 -0.055979162 0.03343001 -0.08960558 -0.013999233 -0.039150417
i'd -0.12911071 0.06680642 0.10455134 0.1108301 -0.17570102 -0.18412128 -0.18730898 0.105622046 0.1288759 -0.15151584 0.12917265 0.14428563 -0.12514879 0.11320424 0.17537959 -0.015157964
 -0.08784633 0.054324932 0.0900214 0.022544852 -0.01521132 -0.04615305 -0.006961799 0.06002251 -0.010544741 -0.001997302 0.03767726 0.055402577 0.008408593 0.059563275 -0.019390054 -0.026560578
children -0.018943327 -0.011577411 0.056642983 -0.0021397993 -0.02795352 -0.008576121 -0.009714384 0.05539662 0.0420851 -0.027403198 -0.00040671823 0.08105614 -0.0053479187 0.021455461 -0.06866914 -0.0022027993
final -0.057032634 -0.026492083 -0.028031874 0.076821305 0.02066368 -0.023195434 -0.034410212 0.095638715 -0.013341073 -0.056492485 0.08462123 0.014313968 0.0008866341 0.02715375 0.04116307 0.008038035
fine -0.07785177 0.0587554 0.09519248 0.103923954 -0.016096156 -0.1296685 -0.135036 0.10787941 0.13309464 -0.10465499 0.064395845 0.12824273 -0.07244028 0.14030862 0.030616967 0.04900981
history 0.039056808 -0.025503581 -0.043659423 -0.00386702 0.10368833 0.010598051 0.022276502 0.009181022 -0.008598795 0.020070178 -0.0056051025 -0.03856064 -0.0508175 -0.0738126 -0.005104294 0.024158606
amazing -0.09806916 0.13826913 0.05969543 0.13544936 -0.050838184 -0.16674347 -0.1588207 0.1535068 0.12690698 -0.1435795 0.129496 0.15101458 -0.09581913 0.11104345 0.04757398 0.12626943
sound -0.026607875 0.07011119 0.13316356 0.08157501 -0.057553425 -0.008491848 -0.10899033 0.07586597 0.038371194 -0.09452157 0.013008357 0.08704485 -0.019254142 0.08167381 0.035156105 0.041931048
guess 0.083722405 -0.09797305 -0.089208275 -0.085495375 0.11631311 0.120452456 0.0919736 -0.044434085 -0.085388556 0.0456206 -0.14520207 -0.08737173 0.01564982 -0.098358445 0.036621302 -0.07665969
heart -0.07207191 0.045559227 0.09925675 0.087689824 -0.06855874 -0.083671175 -0.07557137 0.066728406 0.07333076 -0.10669443 0.087934405 0.09651208 -0.018429175 0.058920544 0.003356469 0.045928877
totally 0.06960044 -0.02315859 0.028659046 -0.10456598 0.049357794 0.01744133 0.041433085 -0.1355344 -0.06926536 0.04053922 -0.108695894 -0.03507907 0.077863745 -0.018543875 0.025490932 -0.0748584
lead -0.062325157 -0.009200821 0.06709503 0.032234207 -0.035510227 -0.04460658 -0.03146769 0.0032373532 0.05048903 -0.036119252 0.046169803 0.086458765 -0.0006694794 0.04318982 0.0002036286 0.055360384
humor -0.021301193 0.03578725 0.022176571 0.10824465 -0.02418711 -0.075055055 -0.1044997 0.04494838 0.0082874065 -0.05376509 0.030954642 0.08391522 -0.057483222 0.09987772 -0.06595234 0.085764214
writing -0.022990268 -0.058768388 0.034961786 -0.06014336 0.023516143 0.0018203739 0.036142197 -0.011279396 -0.0083893165 0.043943476 -0.047536816 -0.03304199 -0.014280064 -0.06558037 0.010460764 -0.023551084
michael -0.09474232 0.053754743 -0.03625899 0.020513361 -0.041190673 -0.039104257 -0.014323822 0.01043837 0.0881297 0.00026812323 0.06470097 0.059687123 -0.004434953 0.0354656 0.086284235 0.043707233
quality 0.0028807328 0.08672418 0.08162527 0.02412834 0.029645886 -0.011075755 -0.051341236 0.00894928 0.06703183 -0.07594712 0.034548264 0.039827656 -0.034807425 -0.013770302 -0.030937351 0.09228127
you'll 0.17474948 -0.08485551 -0.03071606 -0.1509981 0.14503436 0.18198349 0.06868655 -0.12814175 -0.17910536 0.04768547 -0.12037098 -0.067998454 0.09012129 -0.090193205 -0.13956647 -0.017314913
close -0.057038058 0.07201184 0.118610255 0.072787374 -0.08577723 -0.05253373 -0.106489934 0.07828165 0.11530655 -0.10177108 0.15675136 0.10265735 -0.1366842 0.08865903 0.03222321 0.09665149
son -0.054189138 -0.010257223 0.038138933 0.020878684 0.009338849 -0.00036644415 -0.008485744 0.048118062 0.07841961 -0.0030379032 0.067340136 0.079884194 0.009932862 0.057843227 -0.014370753 0.0020397177
guys -0.07271086 0.019405026 -0.019379001 -0.024386844 0.025142148 -0.03689252 0.0075651375 -0.0013124925 0.036240373 -0.07452705 0.0129905585 0.007883748 0.012355456 0.061633583 -0.002941217 -0.033281773
wants -0.039089598 0.020644043 0.048629545 -0.00067387265 0.03484045 -0.032397132 0.039923895 0.024944397 -0.034149863 0.048806656 0.006080615 -0.046823688 -0.03568278 0.010418138 -0.035269868 -0.029375797
works -0.117649734 0.028311837 0.107167274 0.072497055 -0.0010273593 -0.10762028 -0.13537394 0.07618918 0.08378712 -0.1149817 0.14278516 0.1475216 -0.024761166 0.077216 -0.020907607 0.10386933
behind 0.07502608 -0.093149915 -0.100514986 -0.06482678 0.043297328 0.07974205 0.025387205 -0.096744284 -0.11278139 0.03316238 -0.02566546 -0.07560003 0.074122824 -0.04392895 -0.0023016941 -0.038761202
tries 0.016806982 -0.058035098 -0.015803378 -0.01613707 0.039410252 -0.018715413 2.687797e-06 -0.013745074 -0.017627986 0.0025802315 -0.0029436527 0.0005790262 0.022649687 -0.07045083 -0.017929027 0.0025699574
art 0.19423777 -0.10834945 -0.15451838 -0.1355133 0.12638618 0.12920593 0.12393923 -0.14050464 -0.11544208 0.1663333 -0.18591885 -0.16003112 0.058160823 -0.1909149 -0.030791525 -0.04504595
side -0.07386728 0.067141965 0.05750602 0.059752297 -0.05142266 -0.10890873 -0.09739108 0.056236316 0.028594239 -0.059209883 0.111726016 0.03392478 -0.10040564 0.052187636 0.105551094 -0.001983105
game -0.059148375 0.08100502 -0.093668684 0.0138117345 -0.039438304 -0.030210223 -0.057557985 0.0031350148 -0.011233778 -0.029968308 0.02173006 0.09255995 -0.053546626 0.07282312 -0.036658153 0.1430149
past 0.004305586 0.0010819972 0.030764004 0.0009886911 0.012841953 0.071952924 0.046214685 -0.08632046 -0.09452455 -0.018653886 -0.004051887 -0.039366018 0.07136577 -0.08391966 -0.04084548 0.053669166
able -0.069181755 0.031307217 0.02930166 0.03084882 -0.008269637 -0.038314465 -0.03948905 0.016730439 0.081206076 -0.019026138 0.058898848 0.04853676 -0.08411241 0.06620109 0.021616349 0.015267659
b -0.07246252 0.12267991 0.12209769 0.07393576 -0.1475146 -0.117534816 -0.059880268 0.13477138 0.076789744 -0.11469296 0.13411152 0.11748256 -0.074750304 0.1442505 0.09664968 -0.021545876
